%YAML:1.0
---
opencv_ml_svm:
   format: 3
   svmType: C_SVC
   kernel:
      type: LINEAR
   C: 2.6699999999999999e+00
   term_criteria: { epsilon:1.1920928955078125e-07, iterations:1000 }
   var_count: 144
   class_count: 10
   class_labels: !!opencv-matrix
      rows: 10
      cols: 1
      dt: i
      data: [ 0, 1, 2, 3, 4, 5, 6, 7, 8, 9 ]
   sv_total: 45
   support_vectors:
      - [ 7.05673456e-01, -1.41630292e-01, -1.41518652e-01, 0.,
          1.86456367e-02, -3.13591794e-04, 8.34573340e-03,
          -7.08928183e-02, -3.25338840e-02, 1.95369739e-02,
          4.24351394e-01, -2.61401664e-02, 9.98222851e-04,
          1.23345442e-02, -1.70691907e-01, -3.68046194e-01,
          -2.32389346e-01, 1.65391207e-01, 9.95924249e-02,
          -1.43885806e-01, -1.36496529e-01, 1.15229413e-01,
          1.94450006e-01, -1.92420594e-02, -2.51875043e-01,
          1.54835492e-01, 1.80956408e-01, -8.40350091e-02,
          -2.55765051e-01, -6.60789683e-02, 1.18856110e-01,
          9.36079547e-02, -5.49291968e-02, -2.13303030e-01,
          5.81743896e-01, -3.08558550e-02, 5.17941825e-02,
          1.74067259e-01, 1.72994472e-02, -1.91608846e-01,
          -1.14330545e-01, -1.30958170e-01, -1.24758512e-01,
          -6.54630885e-02, 6.66575655e-02, -6.80384412e-03,
          3.78317058e-01, -4.72749630e-03, -1.44822560e-02,
          1.21795505e-01, 3.30444783e-01, 3.12635116e-02,
          -4.96656820e-02, -2.11366698e-01, -2.51487613e-01,
          6.04840964e-02, 1.92498192e-01, 2.56176203e-01, 3.40178818e-01,
          3.67912538e-02, 1.14934288e-01, 2.35939175e-01,
          -2.02449456e-01, -2.84187853e-01, 3.79056744e-02,
          3.08172971e-01, 1.65378347e-01, -2.59014815e-01,
          1.97824031e-01, -1.64479762e-02, 3.33678350e-02,
          3.07020801e-03, 4.54941876e-02, 1.83825865e-02, 1.00262225e-01,
          -2.35480592e-01, -1.34816021e-01, -2.14803908e-02,
          7.17158392e-02, -2.16933526e-03, 1.64263740e-01,
          -3.23913209e-02, -2.47251261e-02, 1.74332503e-02,
          2.33421564e-01, 9.17411149e-02, -1.72958717e-01,
          2.54325598e-01, 2.45354787e-01, 1.37565330e-01, 4.25419629e-01,
          4.27687436e-01, -1.35496348e-01, -7.59675307e-03,
          -2.19205439e-01, -6.15844131e-02, 9.99071598e-02,
          8.13879818e-02, 1.36430845e-01, 6.19398020e-02, 3.50326151e-01,
          -2.25402769e-02, -3.33424062e-01, -2.87084043e-01,
          2.59451307e-02, 2.05901071e-01, 4.46795579e-03,
          -1.59178481e-01, -2.94971075e-02, 9.77479294e-02,
          -1.05409704e-01, 2.29999200e-01, -9.57811847e-02,
          -1.97777107e-01, 1.20335333e-01, 5.77139445e-02,
          7.28530288e-02, 1.64096490e-01, 1.24842845e-01,
          -7.10128173e-02, 4.16048199e-01, -6.97572082e-02,
          -1.99271515e-01, -1.85723856e-01, -9.15654004e-03,
          1.42900079e-01, 2.51524121e-01, 3.62502299e-02,
          -3.51829559e-01, 3.85710411e-02, -3.61675844e-02,
          2.58192003e-01, -6.44720048e-02, -2.22186986e-02,
          6.46563396e-02, 2.22767647e-02, -3.25369909e-02,
          -1.46617189e-01, -2.90994257e-01, 5.00303507e-02,
          4.90703940e-01, 6.41386211e-02, -1.98930595e-02,
          8.92489124e-03 ]
      - [ 9.45841298e-02, 2.62436837e-01, 2.81753279e-02,
          -2.91862600e-02, 2.62148455e-02, 5.57501577e-02,
          -1.36611730e-01, -2.76177794e-01, -4.16733176e-01,
          1.59746796e-01, 1.13290727e-01, -7.23573864e-01,
          -5.24200462e-02, 2.65576690e-01, 2.30482131e-01,
          -3.23173076e-01, -3.39882433e-01, 1.64345890e-01,
          2.74945330e-03, -3.74517858e-01, -1.75685301e-01,
          1.86117694e-01, 3.23029123e-02, 1.20675363e-01,
          -3.69055837e-01, 1.31074823e-02, -1.05330627e-02,
          -2.69794255e-01, -6.43531010e-02, 5.16617075e-02,
          -7.88480490e-02, -3.04103480e-03, 3.11656054e-02,
          3.28210071e-02, 6.58453405e-02, 1.08728139e-03, 1.23929888e-01,
          2.49690577e-01, 8.25537294e-02, 2.02745087e-02, 7.71470219e-02,
          -2.01892287e-01, -3.57513100e-01, -2.97136009e-01,
          -1.32194713e-01, 1.76894665e-01, -6.72285631e-02,
          -5.75190246e-01, -1.14829158e-02, 4.03256416e-01,
          2.27279410e-01, -1.72005534e-01, -3.19533825e-01,
          -1.14533473e-02, -9.48366672e-02, -8.04728791e-02,
          -9.38529968e-02, 8.17371532e-02, 3.55620921e-01,
          -1.27614588e-01, -3.10595989e-01, -1.00558095e-01,
          -3.44423205e-02, -2.54500043e-02, 7.50572309e-02,
          1.85207903e-01, -1.61764950e-01, 4.85613942e-03,
          -6.62788674e-02, 3.36351506e-02, -8.71711299e-02,
          -2.08966553e-01, 3.55883799e-02, 7.77221099e-02,
          1.84802264e-01, 1.00404941e-01, -1.85498327e-01,
          -1.35979891e-01, -9.08630639e-02, -2.06414312e-01,
          -2.09049270e-01, -4.64039445e-02, -1.62424579e-01,
          -1.74953759e-01, 1.02006100e-01, -1.81734059e-02,
          -1.20061904e-01, 1.32237254e-02, 1.58249468e-01,
          7.00937659e-02, 3.70226830e-01, -6.22900426e-02,
          -4.06896204e-01, -2.07534388e-01, 4.94025461e-02,
          -2.49120649e-02, -1.60883695e-01, -1.04375213e-01,
          1.03716090e-01, 2.76337955e-02, 1.94339231e-01,
          -1.35006204e-01, -7.63015598e-02, -4.78323102e-02,
          1.32932648e-01, 1.30388260e-01, -2.97025681e-01,
          -2.92229921e-01, -8.83531049e-02, 1.51010305e-01,
          2.31993183e-01, 1.25636071e-01, -2.02956349e-01,
          -2.51024872e-01, 7.23862797e-02, 1.21258507e-02,
          -2.17688475e-02, 1.83691800e-01, -3.16884108e-02,
          -1.40320405e-01, 3.15927416e-01, 3.29486728e-02,
          -2.66185641e-01, -1.30677313e-01, 2.20873341e-01,
          2.87946224e-01, 3.89290810e-01, -2.24573612e-02,
          -4.58055794e-01, -1.33591816e-01, 1.91426277e-01,
          6.83248565e-02, -1.74150094e-01, -1.50099039e-01,
          2.24281862e-01, 4.83324341e-02, -1.48675695e-01,
          -2.02407703e-01, -1.11528233e-01, -6.12927005e-02,
          4.49593455e-01, -2.10802004e-01, -2.77645230e-01,
          -5.37189539e-04 ]
      - [ 2.13840902e-01, -9.56544951e-02, -1.89537898e-01,
          5.59742451e-02, 4.75381985e-02, 2.19744649e-02,
          -6.42535985e-02, -1.89767361e-01, -1.79618701e-01,
          4.86980706e-01, 2.48217911e-01, -8.81978869e-01,
          -3.31227183e-01, 1.81983769e-01, 6.23053359e-03,
          -6.21511340e-01, -6.76730931e-01, 4.22304450e-03,
          2.15636894e-01, -3.44629377e-01, -6.02401853e-01,
          -2.36117780e-01, 3.57159734e-01, 4.01151955e-01,
          -5.00399411e-01, -2.47301385e-01, 1.48269147e-01,
          -1.26213551e-01, -2.59661436e-01, -1.00726493e-01,
          -1.18382148e-01, 1.30328774e-01, 1.07092775e-01,
          -2.02686399e-01, 1.44098520e-01, 1.52520210e-01,
          1.41789585e-01, 2.09262475e-01, -1.31361172e-01,
          6.27608737e-03, 4.68706302e-02, -3.12694818e-01,
          -2.91422307e-01, -2.96091110e-01, -1.25115901e-01,
          -9.19711143e-02, -4.55586724e-02, -3.69898796e-01,
          8.05267692e-02, 2.47822255e-01, 3.06830794e-01,
          -1.51348755e-01, -3.00002396e-01, -1.33564100e-01,
          -8.57168287e-02, -3.72363068e-02, -5.94294183e-02,
          -1.16490141e-01, 5.19735754e-01, 9.58989561e-02,
          -7.65392333e-02, -5.67400694e-01, -4.86426741e-01,
          -8.74040499e-02, -1.96362481e-01, 1.43137202e-01,
          1.90437451e-01, 8.44024122e-02, -2.12877691e-01,
          7.13382289e-03, -2.62124483e-02, -1.18366294e-01,
          6.14722520e-02, -8.38328153e-03, 1.01869151e-01,
          -1.47167966e-01, -3.93941462e-01, -3.13749462e-01,
          -1.26915336e-01, -5.84611706e-02, -1.61161423e-01,
          -1.23022296e-01, -3.07400614e-01, -5.74264862e-02,
          -1.76176205e-02, -2.45131880e-01, -2.47857094e-01,
          7.95553401e-02, 2.50574052e-01, 1.73647642e-01, 7.29326010e-02,
          1.73965767e-01, 3.54770757e-02, -4.30873483e-02,
          -1.60373196e-01, 7.18874782e-02, -3.72124106e-01,
          -2.82098740e-01, -2.26047650e-01, -2.12424770e-01,
          -3.06094646e-01, 8.86265785e-02, 1.03140824e-01,
          8.70945901e-02, -9.45640579e-02, 1.35972291e-01,
          2.18560979e-01, -1.88710652e-02, 1.00712761e-01,
          2.94247925e-01, -1.86665151e-02, 6.26152335e-03,
          -2.30009347e-01, -2.69455552e-01, 7.67280459e-02,
          7.28923231e-02, -4.84376661e-02, 2.05899626e-01,
          1.19747594e-01, 1.71131212e-02, 1.89697370e-01,
          -6.89148828e-02, -2.98032969e-01, -1.98035836e-01,
          1.64986387e-01, 2.78741539e-01, 5.35930954e-02, 8.02691057e-02,
          -2.32112594e-03, -2.50785679e-01, -8.05174261e-02,
          5.40032685e-02, -1.44094732e-02, -1.95932705e-02,
          1.06152982e-01, -1.15603888e-02, 2.20079497e-02,
          2.65236422e-02, 3.23536471e-02, -1.72206312e-01,
          1.85349122e-01, -2.03346293e-02, 1.60551704e-02,
          5.25849033e-03 ]
      - [ 9.21313539e-02, -2.38995194e-01, -7.32440799e-02,
          -9.38403681e-02, -1.10172823e-01, -2.30340306e-02,
          -5.58133684e-02, -7.99318627e-02, -1.70361072e-01,
          2.93074138e-02, 1.52457774e-01, 2.80771255e-02, 1.79330388e-03,
          -8.84342864e-02, 7.64872581e-02, -7.39560425e-02,
          -1.68417573e-01, -6.64031366e-04, 1.20440543e-01,
          -1.02086134e-01, 4.11660597e-02, 7.30678439e-02,
          1.80442482e-01, 1.66463405e-01, -4.83632624e-01,
          -3.53961051e-01, 1.32232621e-01, -1.16953934e-02,
          -2.26996928e-01, 6.50273636e-02, 4.35327739e-02,
          2.79539954e-02, -1.50408626e-01, -3.83526176e-01,
          1.64363474e-01, 1.23939991e-01, -3.31219397e-02,
          1.34794191e-01, -4.63618292e-03, -3.15940827e-01,
          -3.31298620e-01, -4.33686450e-02, 9.12590101e-02,
          -5.94003731e-03, 5.95680699e-02, 1.42767308e-02,
          1.21638358e-01, -1.51729614e-01, -7.22102374e-02,
          -2.56434292e-01, -1.25618279e-01, 1.03892833e-01,
          1.49698213e-01, -4.63771634e-02, -7.66332224e-02,
          -4.94519770e-02, 8.88962969e-02, 1.44787520e-01,
          2.95773059e-01, -8.50427672e-02, -2.93781012e-01,
          -3.85551035e-01, -1.19698964e-01, -2.17309639e-01,
          1.92715991e-02, 3.63910437e-01, 1.52026609e-01,
          -5.69160394e-02, 9.67031717e-02, 4.50139446e-03,
          1.31271318e-01, -1.77638635e-01, -1.38258412e-01,
          -8.45418125e-02, 1.80011421e-01, -1.46416366e-01,
          -2.55155683e-01, -1.66055664e-01, 3.00563246e-01,
          9.81089026e-02, 5.58530241e-02, -9.08066034e-02,
          -1.24089696e-01, -1.85938656e-01, 8.10798034e-02,
          -1.76493585e-01, -1.07874252e-01, 3.08382034e-01,
          2.88087726e-01, 1.56863451e-01, 2.70492673e-01, 4.74694781e-02,
          -2.06747457e-01, -2.13853940e-02, -1.05426513e-01,
          1.84876919e-01, -2.16944784e-01, -2.19550699e-01,
          -2.45384708e-01, -1.80254340e-01, 2.72878915e-01,
          2.06997842e-01, -6.09256960e-02, -3.41603130e-01,
          7.61420205e-02, 4.36743289e-01, -2.36807093e-01,
          -5.39366543e-01, -1.91918954e-01, -5.85126504e-02,
          -1.17689501e-02, 2.75495559e-01, -1.79020483e-02,
          -2.26546690e-01, 5.77336326e-02, 3.32046673e-02,
          2.34532043e-01, -4.60688584e-03, -2.49836311e-01,
          -1.61397845e-01, 2.44701147e-01, 9.78941023e-02,
          -1.60781711e-01, -6.06375821e-02, 7.37280473e-02,
          3.41953695e-01, 3.28300387e-01, 9.29024369e-02,
          -1.33565038e-01, -3.10234189e-01, -2.18829699e-02,
          3.47870171e-01, -2.69521028e-01, -3.72228324e-02,
          6.75949901e-02, 2.02409662e-02, 5.39951660e-02, 1.95468552e-02,
          -1.44798845e-01, -7.59814829e-02, 1.79277673e-01,
          -1.10514328e-01, -2.02838495e-01, -9.43488181e-02 ]
      - [ -2.68335082e-02, -3.46058607e-02, 6.97938651e-02,
          -9.90188960e-03, -3.60031314e-02, 2.49131359e-02,
          2.75894944e-02, -2.35627349e-02, -2.89737999e-01,
          -8.59629456e-03, 2.56279528e-01, -3.17664832e-01,
          7.16932416e-02, 2.58897275e-01, 2.60871947e-01,
          -2.95676112e-01, -4.54877287e-01, -4.56311256e-02,
          8.22508633e-02, -3.07487845e-01, -6.08462155e-01,
          -9.91791114e-03, 3.44458342e-01, 4.21608388e-02,
          -3.83143038e-01, -4.21353489e-01, 2.96055794e-01,
          -3.79554816e-02, -1.96854964e-01, -3.29229295e-01,
          -2.36130446e-01, 1.11710161e-01, 1.61171760e-02,
          -6.10772558e-02, 9.27305222e-02, 6.00374863e-02,
          -9.35191438e-02, 7.34249353e-02, -7.43678585e-02,
          1.32241426e-02, -2.62773812e-01, -1.42117009e-01,
          4.86508720e-02, 1.71844885e-02, -3.37940641e-02,
          -1.07806087e-01, -1.31383374e-01, -2.27804676e-01,
          6.18523126e-03, 3.98147739e-02, 2.62355596e-01,
          -2.23223716e-01, -9.84473601e-02, -3.27983238e-02,
          -2.91921608e-02, -2.00731337e-01, -1.78603172e-01,
          3.18107381e-03, 2.63026446e-01, -2.15849988e-02,
          -3.12095672e-01, -8.88373926e-02, 1.08277258e-02,
          -5.00245988e-02, -1.65274084e-01, -1.24214061e-01,
          1.54278696e-01, 9.20718685e-02, 4.23497446e-02, 8.59931577e-03,
          -2.92770956e-02, 5.39237000e-02, 1.53798774e-01,
          6.39500679e-04, -7.75110498e-02, 3.23151164e-02,
          -1.45533726e-01, -3.86389494e-02, -4.83873069e-01,
          9.31213722e-02, 9.67170820e-02, 3.52751762e-01, 1.52667850e-01,
          -5.11930525e-01, -3.78163993e-01, -9.96692386e-03,
          -4.40362794e-03, -7.27943256e-02, 3.02613880e-02,
          2.75254041e-01, 1.09222949e-01, 2.51708984e-01,
          -1.19743561e-02, -1.50052220e-01, -2.96815515e-01,
          1.46892846e-01, -6.01492412e-02, -2.43619695e-01,
          -1.36235699e-01, -1.44979641e-01, -4.57789935e-02,
          -1.29221380e-01, 1.23316729e-02, -1.35118365e-01,
          4.67464030e-02, 1.23585090e-01, 6.52533323e-02,
          -1.45063931e-02, 1.56862512e-01, 1.35023147e-01,
          5.98351136e-02, 4.42293555e-01, -3.15685919e-03,
          -4.38853294e-01, -6.95254564e-01, -2.82876920e-02,
          8.00452530e-02, 5.16455889e-01, -4.00490798e-02,
          -3.58928829e-01, -3.53154764e-02, 2.62039483e-01,
          1.87836677e-01, -4.80051696e-01, -1.16707757e-01,
          3.58384877e-01, 1.74266249e-01, 2.61949748e-01,
          -3.00631057e-02, -5.49258292e-01, -8.67318064e-02,
          3.16289783e-01, 6.57921508e-02, -1.48637876e-01,
          1.70034811e-01, -5.24969883e-02, -3.05427313e-02,
          1.88439339e-02, -4.19037379e-02, -2.38676429e-01,
          1.29112452e-01, 3.79305363e-01, 5.51751666e-02,
          -2.66437810e-02 ]
      - [ -1.78803965e-01, -3.95764485e-02, 2.89223701e-01,
          1.99892704e-04, 2.90975254e-02, -3.87456268e-02,
          -1.08950008e-02, 8.63383804e-03, -3.69133323e-01,
          -2.36291349e-01, 6.09826446e-01, -9.25837010e-02,
          8.72488245e-02, 4.78496104e-02, 2.80832164e-02, 2.17804853e-02,
          4.55531664e-02, -1.05171122e-01, -1.88486248e-01,
          1.25165164e-01, -5.81162423e-02, 3.66960645e-01,
          6.39752904e-03, 1.85399786e-01, 7.92779624e-02,
          -2.06432328e-01, -1.51998386e-01, -4.88390997e-02,
          1.44892171e-01, 1.71576917e-01, -2.26655155e-02,
          1.21800423e-01, 7.09547251e-02, 2.16446191e-01,
          -1.17421597e-01, 5.79844182e-03, -2.23988101e-01,
          2.42946789e-01, 2.80163825e-01, -5.74360453e-02,
          -6.16532326e-01, -6.54281914e-01, 2.81254172e-01,
          2.26683155e-01, -1.51083052e-01, -4.92758334e-01,
          -8.49982202e-02, -1.69449940e-01, 2.44826913e-01,
          -8.25048909e-02, 2.49283984e-01, -3.26800704e-01,
          3.02249551e-01, 1.92337111e-01, -2.78765023e-01,
          -1.51761144e-01, 1.62538886e-01, 2.60801669e-02,
          -8.43248144e-03, 1.92105934e-01, 1.65638894e-01,
          -4.34211791e-01, -4.77064192e-01, 1.57108270e-02,
          1.21547572e-01, 2.17192829e-01, 6.05448447e-02,
          -7.98899382e-02, 3.10137689e-01, -3.75161543e-02,
          -1.71731815e-01, -5.54266453e-01, -5.43584153e-02,
          -3.05171728e-01, 1.45318180e-01, 5.39052486e-01,
          -3.84983271e-01, -7.14285016e-01, 7.89168328e-02,
          3.51002663e-01, 3.06411713e-01, 6.09196573e-02,
          -1.70471147e-01, -5.91459692e-01, -1.93195641e-01,
          2.47291878e-01, -3.34911138e-01, -7.90631995e-02,
          3.95957738e-01, 7.25170434e-01, 2.26882175e-01, 3.13386858e-01,
          -1.92486942e-01, -3.11949193e-01, 1.73035599e-02,
          7.97188357e-02, -5.74037611e-01, -3.17038447e-01,
          -8.68521072e-03, 2.50856429e-01, 1.57975964e-02,
          -3.80624495e-02, 6.48689866e-02, -2.49011088e-02,
          2.35256515e-02, -8.86244327e-02, -1.10123560e-01,
          -2.88577937e-02, 1.73343211e-01, -1.19670399e-01,
          -3.68001282e-01, 4.05368716e-01, 4.46559310e-01,
          -7.61975944e-01, -1.32502660e-01, -6.21642061e-02,
          3.88695240e-01, 6.28062367e-01, -1.55226186e-01,
          -5.53322792e-01, -1.86505973e-01, 2.89689153e-01,
          -1.68837503e-01, -3.99029225e-01, -1.04739249e-01,
          2.65063345e-01, 1.38265148e-01, -2.34461665e-01,
          -5.19153289e-02, -7.13853478e-01, 7.19976053e-02,
          3.98993820e-01, -8.55330974e-02, -3.14915814e-02,
          1.39526486e-01, -9.16205638e-04, -2.84838259e-01,
          7.58698024e-03, -2.63224635e-02, 3.59968245e-01,
          9.02968366e-03, -1.78729683e-01, -9.64803994e-02,
          1.56327672e-02 ]
      - [ 4.59011853e-01, -1.43978242e-02, -3.65771383e-01,
          -6.40331283e-02, -1.80261731e-02, 1.20276427e-02,
          -1.65863847e-03, -1.08002268e-01, -1.51096851e-01,
          1.38359398e-01, 2.02187285e-01, -2.76921064e-01,
          -1.38237327e-02, -3.84881347e-02, 4.57948782e-02,
          -3.21159922e-02, -2.77268767e-01, -3.31599787e-02,
          1.42807841e-01, -6.84567243e-02, 7.03225061e-02,
          1.05950043e-01, 3.88221681e-01, -5.84874377e-02,
          -3.88009697e-01, -2.94050723e-01, -7.41191730e-02,
          9.75556895e-02, -1.85235217e-01, 1.03245676e-01,
          1.64915308e-01, 3.76304150e-01, -1.68838292e-01,
          -3.06597382e-01, 2.94465721e-01, 6.13910984e-03,
          -6.23496287e-02, 2.63287127e-01, -2.32860968e-01,
          -1.21020816e-01, -3.65309753e-02, 1.42141134e-02,
          -1.50446683e-01, -2.57704496e-01, 1.18656784e-01,
          1.74594641e-01, 7.93326795e-02, -3.19703162e-01,
          -2.11824030e-02, 2.23589957e-01, 8.58805776e-02,
          -1.98786169e-01, -2.45201796e-01, -3.65205035e-02,
          -2.09182933e-01, -9.75593850e-02, 4.04184639e-01,
          2.22250164e-01, 4.88806039e-01, -1.77327916e-01,
          -2.56789178e-01, -1.46707222e-02, 7.19060600e-02,
          -4.82172340e-01, -2.76508421e-01, 4.83211428e-01,
          1.64489597e-01, -8.81789252e-02, -1.10259190e-01,
          3.20517987e-01, 5.08483887e-01, -2.09995881e-01,
          1.66389287e-01, -2.06561834e-02, 3.68669033e-02,
          -3.45453411e-01, -2.10434675e-01, 2.95300074e-02,
          1.42273873e-01, -1.17890663e-01, -4.28054854e-02,
          4.22745869e-02, -5.57281077e-03, -2.62548059e-01,
          -6.89069033e-02, -1.36455512e-02, -6.97040483e-02,
          8.59335810e-02, 1.10543706e-01, -1.91349044e-01,
          4.03517820e-02, 4.55705710e-02, 6.02194779e-02,
          -6.02837689e-02, 4.62296046e-02, 8.06460455e-02,
          -6.40517995e-02, -4.87741921e-03, -2.71699037e-02,
          -3.37251931e-01, 7.10087419e-02, 1.47052914e-01,
          -3.62594388e-02, -4.11875814e-01, -5.13763577e-02,
          6.01339221e-01, 1.76481843e-01, -1.87792510e-01,
          7.46273901e-03, -3.82780912e-03, -5.03851064e-02,
          -1.52550275e-02, -8.20818618e-02, 8.56792182e-02,
          1.06699668e-01, 1.62285447e-01, 9.40783601e-03, 1.35527141e-02,
          -5.24155088e-02, -3.82276475e-01, -3.83964479e-02,
          4.47658524e-02, -2.65425723e-02, -1.44544682e-02,
          2.78722525e-01, 1.39349028e-01, 2.36063749e-01, 1.52545780e-01,
          -5.20523004e-02, -1.79009825e-01, 1.10437989e-01,
          -5.48349768e-02, -1.09485038e-01, 1.72924623e-02,
          4.07623500e-02, 4.28656265e-02, 1.27477348e-01, 1.15749333e-02,
          -7.87066817e-02, 7.99782798e-02, 2.18803883e-01,
          9.26648676e-02, -8.37318948e-04, -1.46399364e-02 ]
      - [ 3.03119093e-01, -7.67350718e-02, -4.80676182e-02,
          -3.36259184e-03, -6.27651662e-02, -1.13478698e-01,
          -1.44716114e-01, -1.22677892e-01, -4.67986077e-01,
          1.54414162e-01, 4.07685488e-01, -6.03340507e-01,
          -1.02937542e-01, 3.44869168e-03, 1.79316700e-01,
          -5.81179447e-02, -5.11376560e-01, -5.32796420e-02,
          1.19595705e-02, -4.88473862e-01, -3.68452817e-02,
          1.60198495e-01, 2.99050838e-01, 1.27076238e-01,
          -2.89858729e-01, -1.55175969e-01, -1.06159948e-01,
          -6.57077551e-01, -4.51048538e-02, 8.41862485e-02,
          9.71756727e-02, 8.33901912e-02, 1.32280692e-01, 1.71021387e-01,
          2.70079583e-01, -1.41679078e-01, -6.99593648e-02,
          3.56038928e-01, -2.62995899e-01, 1.54944107e-01,
          -6.23041280e-02, -4.08969551e-01, -4.10015374e-01,
          -1.15261646e-02, -3.77638377e-02, 6.94385022e-02,
          -1.11306533e-02, -8.43454182e-01, -2.94283122e-01,
          -9.23352595e-03, 5.30327797e-01, -2.57311642e-01,
          -1.32975951e-01, -6.31247982e-02, -1.37421206e-01,
          -3.37896228e-01, -8.59447420e-02, 2.60976881e-01,
          3.27317506e-01, -6.75000176e-02, -4.23959792e-01,
          -2.96099424e-01, -2.26183206e-01, -2.96565056e-01,
          -7.54371732e-02, 3.25896829e-01, -1.52626373e-02,
          -5.40464818e-01, 4.48992625e-02, 9.42433774e-02,
          -6.63893744e-02, -2.90478855e-01, 1.44392908e-01,
          -1.83202282e-01, 1.81038424e-01, -1.94578424e-01,
          -8.12210292e-02, -2.63277054e-01, -5.29788852e-01,
          -2.04907745e-01, -1.58336639e-01, -6.90156296e-02,
          -3.73997331e-01, -4.21102166e-01, -1.42570257e-01,
          -4.19137031e-02, -5.34271657e-01, -1.38912708e-01,
          3.41095716e-01, 2.90930718e-01, 3.00834000e-01, 3.04989398e-01,
          5.73391374e-03, -1.06750138e-01, 6.17817640e-02,
          -1.01212651e-01, -7.46092796e-01, -3.16456944e-01,
          3.49320881e-02, -1.21045947e-01, 2.36260474e-01,
          -2.04863310e-01, -8.37162659e-02, -4.28916305e-01,
          -7.86951184e-02, 3.33559096e-01, 1.36127800e-01,
          -1.11954793e-01, -1.25267684e-01, 3.27017784e-01,
          -3.30947250e-01, 1.96702033e-01, -2.34202266e-01,
          -1.39345959e-01, -9.38909203e-02, -2.34922528e-01,
          -2.37172782e-01, 2.21553236e-01, -2.04629034e-01,
          -2.35558838e-01, -1.49724066e-01, 2.59369761e-01,
          -4.41438019e-01, -7.00012326e-01, -1.67513266e-01,
          3.24819356e-01, 4.99437571e-01, 1.33634567e-01,
          -1.09538056e-01, -5.54025054e-01, 7.45119676e-02,
          2.31775701e-01, -4.42602426e-01, -3.04619700e-01,
          5.17202578e-02, -2.04885006e-01, -3.88525218e-01,
          4.38360721e-02, -1.94750458e-01, 3.89301516e-02,
          1.73543155e-01, 1.74043357e-01, 1.28952861e-01, 4.00263704e-02 ]
      - [ 2.39102781e-01, -3.32333595e-01, 6.69445843e-02,
          -4.67044441e-03, 7.45414570e-02, -1.89253502e-02,
          1.05508216e-01, -8.59863758e-02, -7.56994113e-02,
          1.30038872e-01, 1.54160976e-01, -1.76893592e-01,
          -9.72377956e-02, 1.30188882e-01, -1.02919333e-01,
          1.83271751e-01, -5.60532331e-01, -1.99250892e-01,
          -5.44581749e-02, -4.33331400e-01, -4.70278651e-01,
          -1.49025932e-01, -2.82466225e-03, 4.21608865e-01,
          -1.54300660e-01, -9.88405198e-02, 5.68226054e-02,
          4.54907045e-02, -3.00173610e-01, 4.16972488e-03,
          2.73703218e-01, 2.59294242e-01, -2.00400621e-01,
          -2.90527850e-01, 1.72873244e-01, 1.20887585e-01,
          -4.40885611e-02, 3.50879699e-01, 1.33120380e-02,
          1.14157587e-01, -4.66934443e-01, -7.68913388e-01,
          -2.49879614e-01, 1.53212592e-01, -9.34798643e-02,
          6.77204505e-02, -2.51496434e-01, -5.97500563e-01,
          -3.52948308e-01, 3.53523761e-01, 3.93330514e-01,
          -4.70642209e-01, -1.98151380e-01, 1.27821460e-01,
          1.17041194e-03, -1.85111851e-01, -5.94860129e-02,
          6.00393936e-02, 4.91026580e-01, 3.12781066e-01,
          -4.59618092e-01, -6.79238081e-01, -4.97763604e-01,
          -4.26697344e-01, -1.94639266e-01, 4.53671217e-01,
          7.59727210e-02, -5.83739802e-02, 5.19149490e-02,
          1.46534413e-01, 4.43412364e-01, -1.29329413e-01,
          -4.60706837e-02, -2.07167029e-01, 2.25420758e-01,
          -6.55542687e-02, -4.38400134e-02, -1.18425250e-01,
          -4.83872324e-01, -4.46371973e-01, -5.76242097e-02,
          -1.33850366e-01, -6.37930691e-01, -3.39245707e-01,
          1.61884502e-01, 3.63334790e-02, 9.86690968e-02,
          -8.38427618e-02, 1.42666891e-01, -3.04489676e-02,
          4.26158309e-01, 3.60045373e-01, -7.26350695e-02,
          3.39607716e-01, -1.96205467e-01, -2.23458946e-01,
          -6.24934196e-01, -2.53260463e-01, -3.75418589e-02,
          -5.83336771e-01, 4.42670405e-01, 6.34730682e-02,
          -1.26883131e-03, -4.16462988e-01, -1.85971677e-01,
          7.28310108e-01, 6.94008498e-03, -3.73080075e-01,
          -1.03388518e-01, 2.69379169e-01, -5.20183563e-01,
          9.91972238e-02, -4.93914604e-01, 1.38426125e-01,
          1.46717951e-01, -8.17190036e-02, -2.09869575e-02,
          1.29731849e-01, -2.40624756e-01, 5.47298056e-04,
          -1.09295525e-01, -1.77414268e-01, 1.05023474e-01,
          -2.51971632e-01, 1.17038362e-01, 4.29082870e-01,
          1.80005342e-01, 1.17256492e-01, -9.58335772e-02,
          -2.90662199e-01, -9.68983620e-02, 1.92239776e-01,
          4.64346185e-02, -6.50576428e-02, -5.89079559e-02,
          -3.99417490e-01, 1.40568197e-01, 5.86853735e-02,
          -1.19739607e-01, -8.40166509e-02, 1.22916602e-01,
          5.10806739e-01, -1.32946566e-01, -3.32240015e-01 ]
      - [ -6.75105751e-01, 4.31314915e-01, 2.66588875e-03,
          1.86605319e-01, -8.81867204e-03, -2.55719572e-01,
          -5.61418474e-01, 4.63117659e-02, -6.19536400e-01,
          5.96049204e-02, 2.34385297e-01, -1.41598254e-01,
          4.42568399e-02, -7.56282583e-02, -2.26673946e-01,
          2.17877164e-01, -3.14671919e-02, 2.06950516e-01,
          -1.75965965e-01, 9.36990380e-02, -1.84266955e-01,
          -2.09122404e-01, -4.14264470e-01, 8.10345449e-03,
          2.78572023e-01, 3.16386849e-01, -3.86031754e-02,
          -3.61381285e-02, 9.94594023e-02, 3.05870399e-02,
          -1.71377510e-01, -1.01955570e-01, 2.25305006e-01,
          3.75370443e-01, -4.04848665e-01, -3.30011696e-01,
          4.06636596e-01, 8.58423635e-02, 2.34157424e-02,
          -2.99259424e-01, 3.87730658e-01, -5.18128574e-01,
          -2.87829250e-01, -1.28106728e-01, 1.76266208e-01,
          1.92013249e-01, 9.55416188e-02, -6.36513472e-01,
          -2.78627545e-01, 1.48583531e-01, 3.15221027e-02,
          -4.22075391e-01, -6.90039992e-02, -4.02490795e-01,
          5.09114228e-02, -7.20552921e-01, -4.48622137e-01,
          -2.30561107e-01, 4.72782940e-01, -4.06148463e-01,
          -3.63240212e-01, -7.74124324e-01, 7.89088964e-01,
          5.14278889e-01, 7.24877641e-02, -1.18373290e-01,
          -3.65680724e-01, 9.04472470e-02, -2.58114845e-01,
          -1.55468285e-01, -2.07168117e-01, -2.58491427e-01,
          4.69044834e-01, 3.28602374e-01, 6.97984248e-02, 4.99613672e-01,
          -8.87496844e-02, 4.17993546e-01, -3.58385354e-01,
          -4.04551625e-01, -5.86028278e-01, -1.83169765e-03,
          -1.23877302e-01, -3.88690948e-01, -5.18279433e-01,
          4.59497154e-01, -1.63340881e-01, 3.36359203e-01,
          -6.15507104e-02, -2.68286228e-01, 1.95379317e-01,
          -8.11176956e-01, -5.82884133e-01, -2.14253217e-01,
          4.77871567e-01, -7.63930827e-02, -6.10404611e-01,
          -3.07256550e-01, 4.46812809e-01, 2.42362887e-01,
          -1.73599035e-01, -1.22615948e-01, -1.08619049e-01,
          7.02929556e-01, -1.17390491e-02, -2.51820028e-01,
          3.27939354e-02, -5.22497773e-01, -9.60974619e-02,
          -1.17246293e-01, 2.33936191e-01, -2.53280640e-01,
          -1.16721466e-01, -9.91692171e-02, 2.07864538e-01,
          -1.90037321e-02, -2.34793276e-02, -2.71233946e-01,
          7.42764100e-02, 1.94356591e-01, 5.96307367e-02, 8.09832141e-02,
          -9.29593444e-01, 8.86075199e-01, 9.77947190e-02,
          -4.36661094e-02, 1.16224691e-01, 1.59363627e-01,
          -1.31936080e-03, -2.53726900e-01, 2.11526796e-01,
          4.53026667e-02, 4.49296497e-02, -8.21051821e-02,
          -2.62521580e-03, 5.98081946e-02, -1.38639048e-01,
          -1.66054785e-01, 4.83673289e-02, -3.93357873e-01,
          3.91543955e-02, -3.03124338e-01, -4.55547631e-01,
          -9.07946564e-03 ]
      - [ -1.11645497e-01, 2.06372902e-01, 1.31081268e-01,
          1.51156709e-01, 2.02187011e-03, -6.59370944e-02,
          -2.97847807e-01, -4.42454219e-02, -3.52441430e-01,
          2.41990790e-01, -2.71077186e-01, -5.18842578e-01,
          -3.52564305e-02, -1.32467449e-02, 8.91583040e-02,
          -8.35992545e-02, -8.17000642e-02, 3.58760240e-03,
          2.20213309e-02, 7.45820478e-02, -2.73601472e-01,
          -3.47780347e-01, -8.37927312e-02, 2.26439521e-01,
          -1.27955049e-01, -2.22194985e-01, 6.71329126e-02,
          1.61039501e-01, -1.07611932e-01, 1.75049715e-03,
          -1.20752871e-01, -3.56221348e-02, 2.25836024e-01,
          -2.35553011e-02, -3.04857105e-01, -5.34570850e-02,
          2.81729221e-01, -1.05959609e-01, -2.56281018e-01,
          1.27616927e-01, 2.14208573e-01, -1.53868133e-02,
          -3.56694281e-01, -1.08949371e-01, 6.12258427e-02,
          -1.15674734e-01, 1.16753176e-01, -3.14242959e-01,
          8.28650221e-02, -9.06763822e-02, -1.02260135e-01,
          -1.91726238e-01, -3.38773094e-02, -1.89711690e-01,
          2.06035525e-01, -2.08072379e-01, -3.18266034e-01,
          -4.39244598e-01, 1.86502382e-01, 2.20062494e-01,
          -2.27619022e-01, -5.34583747e-01, 6.70435503e-02,
          3.90474379e-01, -1.93333521e-01, -2.71214873e-01,
          -9.29796547e-02, 2.06584439e-01, -1.09739482e-01,
          -1.75500169e-01, -2.36363485e-02, 8.45308602e-02,
          3.04819793e-01, -1.57292783e-01, -2.61151761e-01,
          4.07056399e-02, 4.66802195e-02, 9.46137458e-02,
          -3.17621268e-02, -1.94073915e-01, -8.53356719e-02,
          8.00663903e-02, 3.64841670e-02, -3.68553311e-01,
          -2.94285178e-01, 3.17586720e-01, -3.75776082e-01,
          -1.54294312e-01, -1.73539028e-01, -2.27062613e-01,
          -3.53968516e-02, -9.42647532e-02, 1.19735092e-01,
          -7.36983567e-02, 3.09711486e-01, 1.18351188e-02,
          -2.57858366e-01, -3.12740892e-01, -3.00166965e-01,
          -2.52350539e-01, -5.07217526e-01, 1.42777964e-01,
          3.08518350e-01, 1.84897557e-01, -2.33772159e-01,
          7.65516683e-02, 2.92741030e-01, 4.08626795e-02, 1.17080892e-02,
          2.08622798e-01, 1.04519241e-02, -3.41261238e-01,
          -1.23568252e-01, 2.17892930e-01, 1.07537247e-01,
          -4.72410535e-03, -2.18167659e-02, 2.71832310e-02,
          6.70388192e-02, -1.68463320e-01, -4.50906605e-01,
          3.60473901e-01, -3.94192755e-01, 2.26957858e-01,
          9.64002032e-03, -1.35147031e-02, -7.93518052e-02,
          3.94848704e-01, 5.31477094e-01, -3.02587986e-01,
          1.11732036e-01, -3.70348573e-01, -1.17871212e-03,
          -8.94126222e-02, -1.19676508e-01, -1.24387890e-01,
          5.40198833e-02, 3.24776292e-01, 2.20406368e-01,
          -8.90300274e-02, -4.47101563e-01, 3.04150283e-01,
          1.58884495e-01, -7.53064826e-02 ]
      - [ -6.28366232e-01, -3.54831129e-01, -6.07664995e-02,
          -1.66855052e-01, -3.07587624e-01, 7.49616101e-02,
          -8.64892974e-02, 1.94820445e-02, -3.83443326e-01,
          -2.06427440e-01, -6.27875924e-02, 1.39089838e-01,
          -1.72089189e-01, -3.39472204e-01, 3.22702229e-01,
          3.33086729e-01, -1.09218180e-01, 4.87130955e-02,
          3.92859668e-01, -9.17689428e-02, 2.81685799e-01,
          -4.22570184e-02, -1.10992372e-01, 3.60059917e-01,
          -7.55372569e-02, -5.97367883e-01, -2.21722633e-01,
          1.06280945e-01, 1.52949467e-01, 2.62273341e-01,
          -2.67141295e-04, 6.86633363e-02, 2.44844466e-01,
          -3.35323691e-01, -1.92624182e-01, -8.31686556e-02,
          -8.00256878e-02, -4.35984656e-02, -2.84439474e-01,
          -1.45449221e-01, -3.99347067e-01, -5.63986152e-02,
          -1.55582819e-02, 7.23138303e-02, 2.01889962e-01,
          1.01860851e-01, -1.97703987e-01, -6.24058247e-01,
          -1.79869026e-01, -1.40825346e-01, -6.91903651e-01,
          -8.92619565e-02, 1.72012925e-01, -1.19650878e-01,
          1.04030482e-01, -2.65510231e-02, -5.02074659e-01,
          -2.93424159e-01, 5.62115014e-02, -5.03709055e-02,
          -5.47478020e-01, -3.77102226e-01, -1.14147082e-01,
          -3.02898530e-02, -4.66448627e-02, 2.40142435e-01,
          2.40965951e-02, 4.61120233e-02, 1.19322591e-01,
          -1.61550537e-01, 3.74577701e-01, -1.88609540e-01,
          -2.99897730e-01, -3.76022786e-01, -3.37884575e-01,
          3.70942593e-01, 2.29820032e-02, -6.62599280e-02,
          1.82888120e-01, 7.82196149e-02, -2.08071887e-01,
          -2.10215464e-01, -5.89355111e-01, -6.23110890e-01,
          -5.01532495e-01, 3.61571401e-01, -1.18216522e-01,
          -2.20058635e-02, 8.17230716e-02, -1.75395861e-01,
          -3.07862572e-02, -2.33529955e-01, -1.62188813e-01,
          6.61507770e-02, 1.76401347e-01, -2.53377706e-01,
          -6.21778071e-01, -1.83019519e-01, -4.57765944e-02,
          -1.68723524e-01, 1.30736619e-01, 2.25773469e-01,
          1.14007898e-01, -3.74235451e-01, -4.60491478e-02,
          2.52226084e-01, 8.95500556e-02, 4.70735412e-03,
          -8.73294026e-02, -1.35869309e-01, 2.58978397e-01,
          -2.92560846e-01, -2.23483250e-01, 4.46501821e-02,
          8.45457986e-02, 3.21334461e-03, -7.46766552e-02,
          -1.63408086e-01, -1.64805636e-01, -1.71367794e-01,
          -2.45760396e-01, 2.40040030e-02, -1.79993033e-01,
          3.71697873e-01, -2.52051987e-02, -8.29996020e-02,
          4.18604985e-02, 2.36925766e-01, 4.13021535e-01,
          -2.04824373e-01, 4.65768650e-02, -2.43148461e-01,
          -2.00824350e-01, -7.58198500e-02, 1.47234490e-02,
          1.14907473e-02, 8.10846090e-02, 1.88519225e-01, 5.59006035e-02,
          1.26721850e-02, -8.79868686e-01, -2.63006836e-01,
          -1.14292130e-01, -2.09767409e-02 ]
      - [ -1.05284423e-01, 2.17668936e-01, 1.18027270e-01,
          3.84176373e-02, -4.08245660e-02, -2.62409039e-02,
          5.90826385e-03, 1.44546539e-01, -4.38596427e-01,
          -1.71479449e-01, 6.87515140e-02, -9.90689024e-02,
          -6.98335320e-02, -5.93433157e-02, 2.62596667e-01,
          3.87130201e-01, 2.10929394e-01, -2.67257541e-01,
          -2.09146831e-02, -8.09240937e-02, -2.04967827e-01,
          -1.40187830e-01, -9.67241898e-02, 2.05551967e-01,
          1.26107782e-01, -2.63145208e-01, 2.17969611e-01,
          -1.53938588e-02, -1.92745432e-01, -3.15790400e-02,
          -5.18993475e-02, 4.38783245e-05, 4.96771522e-02,
          -1.91907078e-01, -3.67250949e-01, -1.67857930e-01,
          2.10937671e-02, -1.42987529e-02, -1.79590434e-01,
          1.36729151e-01, -1.11851372e-01, -1.95909992e-01,
          1.05208181e-01, 4.02850145e-03, -2.44110711e-02,
          6.61800504e-02, 1.37436688e-01, -1.60683796e-01,
          -1.18519954e-01, -2.71405786e-01, -1.43524155e-01,
          -2.05869116e-02, -1.66457236e-01, -1.50094643e-01,
          1.30287468e-01, -8.60662851e-03, -2.76879609e-01,
          -3.75488877e-01, 3.52620222e-02, 1.42623484e-01,
          -1.04355782e-01, -3.19178492e-01, 8.07738006e-02,
          2.46533915e-01, -1.38603821e-01, -2.22469762e-01,
          -1.11037262e-01, 2.91005373e-01, -1.84473753e-01,
          -2.16228411e-01, 8.95999605e-04, 1.70034587e-01,
          2.34208271e-01, -1.64682090e-01, -1.75901785e-01,
          2.52148837e-01, 9.47741792e-02, -2.07500160e-01,
          -2.14083105e-01, 1.89868025e-02, -3.18270773e-02,
          4.69866633e-01, 1.04667127e-01, -2.69108176e-01,
          -3.39977473e-01, 1.69776008e-01, -8.39326382e-02,
          -3.75018775e-01, -2.84986973e-01, -2.13442162e-01,
          5.50858416e-02, -3.80944349e-02, -1.53012693e-01,
          -7.23321810e-02, 1.77492991e-01, -1.78762525e-02,
          -9.98444259e-02, -1.92990631e-01, -1.77832603e-01,
          -1.56219438e-01, -1.14180379e-01, -8.31037536e-02,
          2.61467040e-01, 1.79486156e-01, 6.30313903e-03,
          -9.12451297e-02, 1.47283420e-01, 3.77667844e-02,
          1.13197997e-01, -1.90618560e-01, 6.59430996e-02,
          -7.93430135e-02, 1.31027609e-01, -2.40821481e-01,
          -4.40808684e-01, -4.82280925e-02, 2.03493144e-02,
          7.61073530e-02, -1.66762784e-01, -1.42970726e-01,
          -2.67532766e-01, 4.39083427e-01, -4.32680734e-02,
          -3.28166097e-01, -2.11452007e-01, -1.43115427e-02,
          -5.46712913e-02, 1.58179954e-01, 1.32179663e-01,
          3.22935805e-02, 1.61170542e-01, -1.09891323e-02,
          -9.65578258e-02, -1.49032176e-01, -8.06479976e-02,
          -5.46951070e-02, 6.30659014e-02, 1.01503745e-01,
          2.19631612e-01, -9.21951607e-02, -2.79823154e-01,
          3.15781355e-01, 6.46529347e-02, -3.47759537e-02 ]
      - [ 1.52141228e-02, 2.28331074e-01, 2.05778971e-01, 3.45003679e-02,
          -2.40866817e-03, -4.89957333e-02, 2.42483448e-02,
          1.24004848e-01, -2.72037648e-02, 5.77119812e-02,
          -2.78332680e-01, -1.21044733e-01, -2.63920166e-02,
          -7.91389495e-02, 1.55808240e-01, 3.60965192e-01,
          1.90966561e-01, -3.97638172e-01, 1.70343332e-02,
          -6.31350726e-02, 1.61501125e-01, -1.12167351e-01,
          -1.01996675e-01, 2.31191814e-01, 2.60187656e-01,
          -2.40943953e-01, -1.84411898e-01, -4.89796884e-02,
          2.42755413e-01, 2.19921812e-01, -4.85147275e-02,
          2.72177309e-02, 1.49761036e-01, -2.43129969e-01,
          -4.83084828e-01, -1.01915255e-01, -9.68025997e-02,
          -1.57312781e-01, 2.19146118e-01, 1.03939265e-01,
          6.48638606e-02, -2.40496397e-01, 1.48879617e-01,
          1.04006104e-01, -3.41747105e-02, -6.21402934e-02,
          -1.26287609e-01, -1.05431184e-01, -1.69106320e-01,
          -3.80358160e-01, -3.07364047e-01, 1.24050044e-01,
          1.46858022e-01, 2.18527779e-01, 9.93409529e-02,
          -9.58277136e-02, -2.36939505e-01, -4.00586694e-01,
          -5.24044856e-02, 5.59131913e-02, -4.03400026e-02,
          -4.07284349e-01, 7.06654042e-02, 1.90994203e-01,
          6.00907356e-02, -2.06977993e-01, -4.62234160e-03,
          2.63337910e-01, -1.97473634e-02, -3.29680473e-01,
          -1.30789131e-01, -2.44189858e-01, -5.82214184e-02,
          -1.92925483e-01, 6.10105954e-02, 3.82824391e-01,
          9.42558050e-02, -2.12333545e-01, -2.12733105e-01,
          1.42223435e-02, 5.10337725e-02, 7.11541399e-02,
          -1.63036156e-02, -3.29104543e-01, -5.36320686e-01,
          5.90582937e-02, 4.30816901e-04, -2.22119033e-01,
          -2.17962638e-02, 2.19757587e-01, 9.00574997e-02,
          -1.83839232e-01, -2.85148561e-01, -2.14888036e-01,
          1.47376090e-01, -1.10704631e-01, -1.53961390e-01,
          -9.16383639e-02, 1.56346828e-01, 6.38410747e-02,
          -1.49151698e-01, -1.27109349e-01, 3.76075178e-01,
          1.24704883e-01, -6.22345544e-02, -1.95039347e-01,
          -2.32056975e-01, 2.57050931e-01, 4.43527289e-02,
          -1.31489143e-01, 2.18491703e-02, 1.31038889e-01,
          2.58865058e-01, -4.79414940e-01, -2.35135719e-01,
          -9.09221619e-02, 2.11997442e-02, -8.95228412e-04,
          -1.18018910e-01, -1.60020292e-01, -4.87619162e-01,
          3.78032655e-01, 5.16544022e-02, -3.44281346e-01,
          -1.65851355e-01, -4.17668670e-02, -1.20123252e-01,
          2.09328178e-02, 2.40363494e-01, -7.26638258e-01,
          8.26528519e-02, 1.78347319e-01, 4.47863415e-02, 1.84068736e-02,
          -4.74779382e-02, -2.83778575e-03, 3.55374329e-02,
          1.21127889e-01, 4.06649649e-01, 8.69627744e-02,
          -7.94123054e-01, -6.09832741e-02, -1.69736799e-03,
          1.11917788e-02 ]
      - [ -2.30887935e-01, -2.80937284e-01, -1.97444245e-01,
          1.03887260e-01, 8.29006359e-02, 1.56217022e-02, 1.94131181e-01,
          1.41072303e-01, -3.09534848e-01, 1.94252953e-01,
          -2.43860081e-01, -6.02432191e-02, 1.35795157e-02,
          4.18251194e-02, 1.75956756e-01, -2.79509336e-01,
          -3.62759352e-01, -8.90595764e-02, -1.75813049e-01,
          2.43803039e-01, 1.86598182e-01, 6.22650667e-04,
          -2.77187023e-02, 1.41144976e-01, -4.16299641e-01,
          4.33592871e-03, 6.02734350e-02, 3.19304764e-02, 2.58846670e-01,
          2.04145268e-01, 1.35303417e-03, -8.12793076e-02,
          -7.85589740e-02, 2.71872361e-03, 5.45905530e-01,
          -2.79757325e-02, 1.94811061e-01, 3.48875895e-02,
          -7.89130270e-01, 1.19603083e-01, 2.29715869e-01,
          -5.40006794e-02, -2.61431605e-01, -3.15970212e-01,
          1.74913526e-01, 2.81052560e-01, -9.16355699e-02,
          -5.65438807e-01, 1.57635421e-01, 5.30555882e-02,
          -4.91238758e-02, -6.57406390e-01, -3.57428432e-01,
          -3.11769228e-02, -5.52318245e-02, -2.68642038e-01,
          1.52053181e-02, 5.44366986e-02, 1.77700609e-01, 1.80508018e-01,
          -4.71777976e-01, 1.71278473e-02, 1.84305668e-01,
          -2.03937560e-01, 3.28724459e-02, 2.15909228e-01,
          -4.76556271e-02, -2.80440480e-01, -6.10937960e-02,
          4.19722140e-01, 6.09357595e-01, -1.71601370e-01,
          5.52597702e-01, -2.67968386e-01, -3.15290093e-01,
          5.89544624e-02, 3.53112668e-01, 4.56305891e-02,
          -1.49027109e-01, -3.89190823e-01, -2.99227446e-01,
          2.60986071e-02, -8.41992944e-02, -3.95140648e-01,
          -2.52291143e-01, 5.53541958e-01, -3.22203934e-01,
          -9.20533985e-02, -2.56990761e-01, -5.63398600e-01,
          -1.56148776e-01, -1.36634335e-01, -5.27216271e-02,
          1.74967162e-02, 4.59796458e-01, 1.56777154e-03,
          -4.91721332e-01, 2.68120207e-02, -6.42346963e-02,
          -4.12094086e-01, -4.27954346e-02, 1.86250627e-01,
          3.25390548e-02, 3.56778838e-02, -1.45441532e-01,
          3.95346820e-01, 2.96788037e-01, -2.81700999e-01,
          8.81941319e-02, 8.07138011e-02, -4.45094556e-02,
          -1.56823605e-01, -9.58324522e-02, 8.85124318e-03,
          9.90313441e-02, -4.50692093e-03, 1.53535535e-03,
          -7.45033249e-02, -1.67657137e-02, -2.97741324e-01,
          -3.06555629e-01, 7.19246715e-02, -3.82473886e-01,
          3.36836308e-01, 4.08364721e-02, -6.67679086e-02,
          1.25400340e-02, 2.38143742e-01, 2.31320307e-01,
          -1.00612208e-01, 3.64349782e-01, -5.11957347e-01,
          -3.76644284e-01, 6.32750914e-02, 5.10772802e-02,
          3.88719775e-02, 6.95995167e-02, 1.16899461e-01, 6.49406090e-02,
          -4.77267414e-01, -1.54539123e-01, 2.98570544e-01,
          2.19617724e-01, 9.77301896e-02 ]
      - [ -2.04783231e-01, -2.28782088e-01, 1.24094285e-01,
          1.14136323e-01, -4.06204499e-02, -1.12536766e-01,
          4.40065973e-02, 4.66281265e-01, -4.60163623e-01,
          -9.32489336e-02, -3.66179794e-01, -6.16426067e-03,
          -8.75626430e-02, -9.15477052e-02, 2.69602001e-01,
          5.07449031e-01, -5.27401529e-02, 9.79286134e-02,
          -3.52626108e-03, -3.85419190e-01, 5.58308244e-01,
          -7.57135451e-02, -2.14917734e-01, -5.91417290e-02,
          1.23279609e-01, -1.31413102e-01, 2.50231862e-01,
          -3.20789576e-01, 2.31340557e-01, 3.17819566e-01,
          -2.20941007e-02, -4.10468608e-01, -6.77443892e-02,
          7.93923810e-02, -9.54298228e-02, -3.25917989e-01,
          -1.76842079e-01, -2.76791006e-01, -2.70234108e-01,
          4.55457658e-01, 1.53352907e-02, -2.57728845e-01,
          -8.17583874e-03, 2.60140181e-01, -8.70767683e-02,
          7.14366883e-02, 1.41865909e-01, -8.52629125e-01,
          -1.46073639e-01, -4.94293183e-01, -9.20983702e-02,
          2.63542205e-01, -5.16361952e-01, -2.49542728e-01,
          1.09168272e-02, -2.84724832e-01, -1.91754773e-02,
          -1.91217303e-01, -1.83764845e-01, 3.16765308e-01,
          -6.53806746e-01, -5.28861880e-01, 5.35173416e-02,
          -1.40925676e-01, -1.30535975e-01, -2.51842469e-01,
          -2.95637429e-01, 1.87267691e-01, 7.71591812e-02,
          -2.11214513e-01, -4.35793437e-02, -2.98088700e-01,
          4.50364143e-01, -3.79210353e-01, -3.91514301e-01,
          1.04646362e-01, 1.29766613e-01, -1.52012691e-01,
          -6.91143215e-01, -3.60939652e-01, -2.28501379e-01,
          3.76680672e-01, -3.77601802e-01, -1.01060438e+00,
          -5.66820323e-01, 2.31901884e-01, -3.13617266e-03,
          -4.23283875e-01, -3.20183635e-01, -5.52043796e-01,
          1.41056672e-01, 1.36505887e-01, -4.19210196e-02,
          -1.98741093e-01, 9.83542800e-02, -2.02391878e-01,
          -4.97829229e-01, -3.87145698e-01, -2.20986813e-01,
          -2.50313193e-01, -3.12485069e-01, -1.86311930e-01,
          1.27184346e-01, -2.55121849e-02, -1.91582888e-01,
          2.49195218e-01, 2.32714564e-01, 9.24365968e-02, 1.63066357e-01,
          2.13861555e-01, -2.67874390e-01, -2.89100975e-01,
          2.76372284e-02, -3.38986486e-01, -1.88141495e-01,
          -3.71459574e-02, -1.66384414e-01, -1.11592159e-01,
          -2.19140071e-02, -4.71667014e-02, -2.88372099e-01,
          3.36109847e-01, -3.95739973e-01, -2.87312627e-01,
          -2.03860719e-02, -1.08753629e-01, -7.18007237e-03,
          3.22455436e-01, 5.07526040e-01, -3.57129157e-01,
          5.06287396e-01, -3.00997138e-01, -4.61091191e-01,
          -1.86881334e-01, -5.57815023e-02, -6.30890802e-02,
          3.14179994e-02, 1.63393423e-01, 9.84672680e-02,
          -3.14705521e-01, -2.45271698e-01, -1.85168430e-01,
          1.79859977e-02, 3.96526679e-02 ]
      - [ -3.04931313e-01, -1.08452793e-02, -4.76378240e-02,
          1.69359595e-01, -2.72442307e-02, -1.86480768e-02,
          -8.86056572e-03, 3.44194740e-01, -1.64271668e-01,
          -1.47581860e-01, 1.61976516e-01, -2.81108432e-02,
          -2.45737895e-01, -2.38032848e-01, 1.29345313e-01,
          4.01715219e-01, -2.25469485e-01, -4.11393881e-01,
          1.10706888e-01, -8.60587358e-02, -3.95237744e-01,
          -1.23989590e-01, -1.77059576e-01, 3.43792647e-01,
          -3.06979150e-01, -4.89653856e-01, 4.51706707e-01,
          1.92379266e-01, -3.34958546e-02, 2.55667809e-02,
          -1.17379939e-03, -3.85285402e-03, -2.85766959e-01,
          -4.82930839e-02, -2.98253924e-01, -3.56545001e-02,
          1.60077978e-02, -3.32836926e-01, -6.39793277e-01,
          3.17733049e-01, 9.61238965e-02, -3.57376188e-01,
          -3.42641652e-01, 1.17484413e-01, 5.93303025e-01,
          7.13650212e-02, -1.32210642e-01, -5.15792072e-01,
          -1.16156206e-01, -2.99743652e-01, -5.41591970e-03,
          -7.00417086e-02, 1.67365707e-02, -2.74143904e-01,
          2.60482609e-01, -7.92547837e-02, -1.09163076e-01,
          -2.33615637e-01, 3.93131137e-01, -5.98774366e-02,
          -4.97715324e-01, -4.21983838e-01, -1.87752932e-01,
          1.10666156e-01, -4.82957244e-01, 1.62244007e-01,
          -2.47915983e-01, 1.52722728e-02, -3.01413145e-02,
          1.19703770e-01, 6.65010571e-01, 1.83662221e-01, 3.00469548e-01,
          -2.88040847e-01, -4.26812947e-01, 8.90873745e-02,
          4.69091758e-02, 2.72054255e-01, -2.25981116e-01,
          -1.33665189e-01, 1.70296848e-01, 1.48811758e-01,
          -4.07269090e-01, -3.53560537e-01, -1.01798147e-01,
          1.97773084e-01, -1.52903691e-01, -2.93619275e-01,
          -3.26762080e-01, -1.07713215e-01, 5.49075790e-02,
          1.26707196e-01, 5.45890853e-02, 1.41993135e-01, 1.72722012e-01,
          -2.02035174e-01, -3.53556782e-01, -2.38828510e-01,
          -2.24693373e-01, -3.09010923e-01, 3.59263048e-02,
          -9.44398530e-03, 7.34876469e-02, 1.19308494e-01,
          -1.18556127e-01, 7.36909986e-01, 3.95539105e-02,
          -2.75395930e-01, 5.32631539e-02, 3.85573953e-02,
          -1.52319059e-01, -4.85066772e-01, -2.82502085e-01,
          5.30894458e-01, 1.03103839e-01, -1.22031486e-02,
          -3.64536606e-02, -8.02963749e-02, 1.92677155e-02,
          4.78815958e-02, -2.54046917e-01, 1.29493460e-01,
          -2.83519268e-01, 2.96840221e-01, 2.48966571e-02,
          -3.77917513e-02, -3.74496281e-02, 2.53025949e-01,
          4.51354861e-01, -5.92396818e-02, 5.15445247e-02,
          -1.19859122e-01, 7.62587562e-02, 1.11572165e-02,
          -4.36465591e-02, -2.82619521e-02, 9.98862535e-02,
          2.73145318e-01, 1.28575683e-01, 6.03583306e-02,
          -9.26170528e-01, 6.10523641e-01, 9.22459140e-02,
          -2.07229972e-01 ]
      - [ 5.18586695e-01, -1.37814015e-01, -3.69986296e-02,
          -1.43988826e-03, 3.36801331e-03, 1.67825818e-01,
          2.34185252e-02, -1.27406707e-02, 1.04560129e-01,
          2.25986317e-01, -1.06921017e-01, -1.22786500e-01,
          -3.13484371e-01, -2.24461168e-01, -9.88893062e-02,
          -1.58361346e-01, -1.83426186e-01, -2.46193007e-01,
          3.09993476e-01, 3.04217517e-01, -4.48725879e-01,
          -3.59804899e-01, 1.05654091e-01, 3.92980814e-01,
          -3.57510686e-01, -3.67733181e-01, -1.32851992e-02,
          -1.41190663e-01, -2.63936371e-01, -3.46685827e-01,
          1.64836019e-01, 7.07536489e-02, 3.62886608e-01,
          -2.52105594e-01, 1.22030843e-02, 3.67918432e-01,
          1.88772097e-01, -3.49001661e-02, -6.38778627e-01,
          6.25849068e-02, 1.99681059e-01, 4.66691665e-02,
          -6.09974489e-02, -6.97165495e-04, -4.77373600e-02,
          -3.33912313e-01, -3.04461438e-02, 1.19334109e-01,
          4.21517342e-01, -9.79808643e-02, -8.90978724e-02,
          2.22624004e-01, 4.32289504e-02, -2.77985811e-01,
          2.37563729e-01, 3.05069476e-01, -1.47926241e-01,
          -2.28629336e-01, 1.10337973e-01, 5.99736750e-01,
          9.71408933e-02, -4.41292018e-01, -4.40803260e-01,
          -2.68100321e-01, -4.10719782e-01, -7.74957061e-01,
          1.84206307e-01, 2.84900427e-01, 2.83721507e-01, 1.52672201e-01,
          4.85566668e-02, 8.50599855e-02, 1.38743073e-01,
          -1.52981356e-01, -5.18273473e-01, -3.09525937e-01,
          -3.62869710e-01, 6.90607950e-02, -7.63532966e-02,
          2.35894963e-01, 4.56234425e-01, -2.04680376e-02,
          5.01517253e-03, 1.45836368e-01, -1.66421309e-01,
          -2.08610132e-01, -4.82703000e-01, -4.73135561e-01,
          -1.81353539e-01, 4.93177474e-01, 1.23934537e-01,
          4.49002713e-01, 6.51194453e-01, 1.71343610e-01,
          -1.98679402e-01, 4.52289373e-01, 1.47847936e-01,
          -8.13603044e-01, -7.55144477e-01, -5.30685224e-02,
          -6.89483106e-01, -2.83545345e-01, 1.55150130e-01,
          -1.30709037e-01, -9.89467278e-02, 1.61897615e-01,
          6.25053108e-01, 4.49727356e-01, 1.32351249e-01, 9.42119397e-03,
          -3.87195736e-01, 1.67701229e-01, 4.18952592e-02,
          -2.04757899e-01, 2.48142872e-02, 1.09665975e-01,
          2.35815540e-01, 3.93510908e-01, 2.43793279e-01, 5.10899462e-02,
          -2.81854600e-01, 3.31949256e-02, -4.35925484e-01,
          -3.16073388e-01, -1.44275710e-01, 2.89997101e-01,
          -1.28775164e-01, 5.57294488e-01, 7.01911867e-01,
          -3.39718387e-02, -2.49573007e-01, 1.47164032e-01,
          3.40491563e-01, -1.30709931e-01, -2.82371312e-01,
          -2.15376914e-01, -8.48018900e-02, 3.08969259e-01,
          1.75980940e-01, -1.42681777e-01, -5.34037113e-01,
          6.92616999e-01, 6.46725774e-01, 3.75511050e-02 ]
      - [ 2.86476873e-02, -3.45439523e-01, 1.98308080e-01,
          -2.19140247e-01, -2.60043275e-02, 2.79687554e-01,
          1.15569621e-01, 1.12421557e-01, 1.81545377e-01,
          -1.49682194e-01, -4.53501903e-02, 4.87309545e-01,
          -7.89484158e-02, -4.57774490e-01, -5.83754778e-02,
          4.20901686e-01, 1.04473993e-01, 1.12745486e-01, 1.82392895e-01,
          3.83728772e-01, 9.03210416e-02, -1.62081897e-01,
          -8.77513513e-02, 1.71988919e-01, -1.75547093e-01,
          -3.19155544e-01, 7.21400231e-02, 2.19444320e-01,
          -1.51065573e-01, 1.26121446e-01, 3.38785425e-02,
          1.04195297e-01, -1.17578395e-01, -3.23812991e-01,
          9.58939493e-02, 2.73582220e-01, -2.47325927e-01,
          -1.82196707e-01, -6.47417232e-02, -1.37979016e-01,
          -5.03107429e-01, 1.90005377e-01, 1.55915752e-01,
          3.87770236e-01, 4.43053804e-02, -2.83807553e-02,
          8.24714899e-02, 2.00143009e-01, -3.17006618e-01,
          -7.48791635e-01, -4.87627298e-01, 3.81238401e-01,
          6.39945269e-01, 3.86462659e-01, 2.14228570e-01, 1.50995135e-01,
          -9.15664658e-02, -2.91968912e-01, -9.63189900e-02,
          1.78713053e-01, 1.02656320e-01, -2.43731827e-01,
          -2.14947805e-01, -3.49183828e-01, -4.73583005e-02,
          3.44941765e-01, 1.31775349e-01, -2.56278098e-01,
          3.65048826e-01, 9.47087631e-02, 2.55709380e-01,
          -1.65122345e-01, -4.80063081e-01, -3.28971803e-01,
          -3.02121609e-01, -1.50132805e-01, -2.25073040e-01,
          6.18889295e-02, 4.88961399e-01, 1.74866393e-01, 4.52981777e-02,
          -2.78871804e-01, 1.33626647e-02, -2.05466580e-02,
          -2.62143016e-01, -2.55299330e-01, 4.52086516e-02,
          2.06664398e-01, 1.98025584e-01, 8.72414559e-02,
          -1.07304938e-01, 4.72171269e-02, 3.45332593e-01,
          3.22518587e-01, -4.00547594e-01, -3.95522779e-03,
          -1.15838677e-01, 1.47223145e-01, -3.95546615e-01,
          -4.37964648e-01, 1.32319629e-01, 2.74488389e-01,
          3.54827255e-01, -5.42711496e-01, -2.02165022e-01,
          3.65654916e-01, 5.04018068e-01, -2.30975986e-01,
          -2.87977140e-02, -1.35781821e-02, -4.63335603e-01,
          -5.27274907e-02, 2.57420689e-01, -4.19561780e-04,
          1.10215180e-01, 2.10646400e-03, -1.87590420e-02,
          1.20668150e-01, 2.02511594e-01, -1.29749104e-01,
          -3.56463462e-01, -6.70072958e-02, 2.86030080e-02,
          -2.35266343e-01, -7.86719993e-02, -7.28082508e-02,
          3.94016318e-02, 7.56025985e-02, 2.54817277e-01, 5.03475145e-02,
          -3.00971031e-01, 4.17721331e-01, -2.30054483e-01,
          1.57855034e-01, -1.70203656e-01, -2.19047088e-02,
          7.42609948e-02, 2.39948958e-01, 3.27431440e-01,
          -2.17909291e-02, -2.28134647e-01, 3.02203093e-02,
          2.53663272e-01, -1.18593432e-01 ]
      - [ 5.27982950e-01, -7.16192126e-02, 1.19762063e-01,
          -3.23510952e-02, -7.66319260e-02, 6.57141060e-02,
          3.18135440e-01, 2.71560848e-01, 2.30443418e-01,
          -1.91435412e-01, 1.48398310e-01, 1.78915724e-01,
          -8.78668204e-02, -1.10284314e-01, 1.27298713e-01,
          2.54256159e-01, -8.06195661e-02, -9.83800739e-02,
          6.89861476e-02, 1.97812930e-01, -2.59494513e-01,
          -2.51356244e-01, 1.26739025e-01, 9.91479605e-02,
          -2.14513913e-02, -3.18361163e-01, 2.38831952e-01,
          -5.71558140e-02, -1.13144882e-01, -1.50396675e-01,
          -3.27983089e-02, 3.57222110e-02, 1.87574893e-01,
          -1.58839852e-01, -2.85601267e-03, 7.26168528e-02,
          8.79350528e-02, -4.48291413e-02, -3.16236764e-01,
          1.21289283e-01, -2.63951898e-01, -6.53878748e-02,
          2.55318940e-01, 2.05722868e-01, 9.84516740e-02,
          -5.75885214e-02, 3.44504356e-01, 4.28850949e-02,
          -2.84441039e-02, -4.77682114e-01, -1.30474091e-01,
          -7.87654817e-02, 2.10686222e-01, 1.48262903e-01,
          6.99787959e-02, 2.89418846e-01, -4.40625027e-02,
          -2.68903822e-01, -3.14201787e-02, 2.95971632e-01,
          -6.24953620e-02, -1.09502301e-01, -5.35142086e-02,
          -6.43161684e-02, -9.33909044e-02, -2.52186954e-01,
          -9.55618918e-02, 7.20959529e-02, 2.27382660e-01,
          1.04332455e-01, 3.74130420e-02, 9.94746983e-02, 1.90768644e-01,
          -9.53776240e-02, -2.90870816e-01, 2.58088887e-01,
          -1.83057442e-01, -2.28918269e-01, -2.82426029e-01,
          2.52609074e-01, 1.43769115e-01, 4.85813111e-01, 2.61652738e-01,
          -2.43004635e-01, -3.64327788e-01, -1.39021531e-01,
          4.78174426e-02, -4.01688039e-01, -2.06800237e-01,
          2.20743567e-01, -5.12438687e-03, 2.81440884e-01,
          1.92133948e-01, -3.89566720e-02, -1.37203649e-01,
          3.19883436e-01, 2.64672935e-01, -1.77218482e-01,
          -2.21790120e-01, -2.80607939e-02, -3.09017092e-01,
          -1.64559349e-01, -1.66027956e-02, -1.17092103e-01,
          1.50051072e-01, 7.45492429e-02, 3.17833006e-01, 1.74162403e-01,
          1.53535187e-01, -4.22759801e-02, -3.98654640e-02,
          1.16414793e-01, 6.52732402e-02, -2.82837182e-01,
          -4.92238611e-01, -4.36516339e-03, 9.70082730e-02,
          2.50499010e-01, 1.77464217e-01, -2.32460007e-01,
          -3.78927916e-01, 2.88488716e-01, 2.35494062e-01,
          -3.87716085e-01, -3.56522799e-01, 1.19347729e-01,
          -7.94152841e-02, 3.08144301e-01, 2.89363593e-01,
          3.81452180e-02, -1.82490289e-01, 2.08045751e-01,
          3.08492362e-01, -7.54241422e-02, -6.08832054e-02,
          -3.79724503e-02, -4.77508307e-02, 5.92076518e-02,
          1.23656824e-01, -2.30846941e-01, -2.88724840e-01,
          4.54420090e-01, 2.62679070e-01, 6.71361759e-02 ]
      - [ 2.50261992e-01, -1.16206333e-01, 2.56651640e-01,
          5.35094514e-02, 5.85280173e-03, -1.21098429e-01,
          1.35733858e-01, 3.99252594e-01, 4.25496221e-01,
          -7.75796473e-02, -3.96254808e-02, 4.10461783e-01,
          -1.04280986e-01, -2.38339812e-01, -1.32037401e-01,
          2.73181081e-01, 2.37162054e-01, -8.25611278e-02,
          -7.56706074e-02, 3.85791183e-01, 2.63831794e-01,
          -2.30007350e-01, 7.27595240e-02, 1.31695449e-01,
          2.25803748e-01, -2.16249555e-01, -1.59236386e-01,
          6.04444258e-02, 2.80096620e-01, 6.16554283e-02,
          -1.24043286e-01, 8.35851878e-02, 8.83183181e-02,
          -1.89031705e-01, -8.57447758e-02, 3.98366638e-02,
          -2.36293390e-01, -2.74137795e-01, 3.71325225e-01,
          2.54139781e-01, -1.93954051e-01, -1.94538757e-01,
          1.82849869e-01, 5.65631032e-01, 2.42259815e-01,
          -1.04003072e-01, 5.56533597e-02, 2.30716005e-01,
          -1.61368683e-01, -3.51744443e-01, -2.54546195e-01,
          3.03738445e-01, 5.97958267e-01, 1.71792746e-01,
          -9.01899412e-02, 7.35561922e-02, 3.15339506e-01,
          -3.46648008e-01, -1.52260900e-01, 2.01842427e-01,
          1.22506052e-01, -2.75830388e-01, -1.39490813e-01,
          7.14298412e-02, 7.79795945e-02, 7.53786042e-02, 3.94338183e-02,
          2.38339622e-02, 1.58553645e-01, -5.40193878e-02,
          -9.34785977e-02, -1.60885975e-01, -1.21564284e-01,
          -2.90848941e-01, 3.82227659e-01, 1.82476997e-01,
          -2.53905952e-01, -1.71112686e-01, 6.22166554e-03,
          1.78482071e-01, 2.56232381e-01, 3.08683738e-02, 7.43745863e-02,
          -3.13715547e-01, -2.76406765e-01, 1.50328532e-01,
          4.81303073e-02, -1.80120245e-02, 8.37769136e-02,
          2.04181463e-01, -1.91296145e-01, 1.24512374e-01,
          1.67513743e-01, -2.08937362e-01, -1.04370646e-01,
          7.11319298e-02, -5.34569174e-02, -4.12845835e-02,
          1.32492349e-01, 3.82440053e-02, -1.06970944e-01,
          -3.90114747e-02, 1.42222673e-01, -3.52763280e-04,
          -1.22212261e-01, -3.33728492e-02, 3.10545415e-02,
          2.11696878e-01, 1.82195291e-01, -1.70115799e-01,
          -1.61592662e-01, 3.20250392e-01, 2.65977412e-01,
          -1.32615209e-01, -1.96159258e-01, -4.98253256e-02,
          4.01897281e-02, 1.68198168e-01, 2.06601813e-01,
          -3.80947083e-01, -5.33580065e-01, 1.52856618e-01,
          1.59976482e-01, -1.86534613e-01, -2.30213121e-01,
          -1.61600277e-01, -3.30811858e-01, 9.64173228e-02,
          2.78573126e-01, -2.21231744e-01, -1.44494027e-01,
          1.03701264e-01, 2.22382635e-01, 3.66619639e-02,
          -2.17855215e-01, -6.08782992e-02, -8.04526508e-02,
          2.18913585e-01, 2.40946516e-01, -2.05405876e-02,
          -2.49658018e-01, -5.68497851e-02, 2.28612229e-01,
          -1.56148849e-02 ]
      - [ 2.16770217e-01, -1.40046000e-01, -4.46804762e-01,
          1.57681465e-01, -3.18281353e-03, -2.57814722e-03,
          7.11547211e-02, -8.28758031e-02, -3.82268250e-01,
          -1.61903307e-01, 3.85806523e-02, -2.87219107e-01,
          -1.85694154e-02, -1.03339516e-01, 2.51604825e-01,
          7.76150525e-02, -1.64937809e-01, -1.18028969e-01,
          3.28653276e-01, 2.03979462e-01, -1.02755390e-01,
          1.82119116e-01, 3.62342149e-01, 2.99175948e-01, 3.41870002e-02,
          -2.86917239e-01, -4.96192016e-02, 8.44567046e-02,
          -6.80090487e-02, 2.60735482e-01, 1.71984106e-01,
          2.89451391e-01, -4.46078867e-01, -3.86311948e-01,
          8.39714706e-01, -4.13442329e-02, 3.36439461e-01,
          -2.36381203e-01, -5.81245244e-01, 9.35286880e-01,
          1.58706191e-03, 4.97554839e-01, 1.43189251e-01,
          -7.88611695e-02, 1.60656929e-01, -1.76979974e-01,
          -2.28885621e-01, -3.80709791e-03, 3.76042165e-02,
          -2.46885315e-01, 2.70733505e-01, 9.73581597e-02,
          1.03560276e-01, 1.07173912e-01, 4.68514301e-02, 4.10789609e-01,
          2.78692514e-01, 2.43767023e-01, 1.63232565e-01,
          -8.03035423e-02, -5.57841182e-01, -6.40011668e-01,
          -7.24561214e-02, -9.24777031e-01, -3.86209339e-01,
          4.74204540e-01, 2.85481781e-01, -7.32861638e-01,
          2.20043778e-01, 7.58753717e-01, 8.42974365e-01,
          -1.03306614e-01, 2.76808918e-01, -6.34946823e-01,
          -3.54697376e-01, -3.15268546e-01, 5.98902106e-01,
          6.03838712e-02, 3.23848099e-01, 2.10780561e-01, 2.53496140e-01,
          -6.02228045e-02, 2.88464487e-01, -2.68918186e-01,
          8.05566683e-02, 1.52378261e-01, -1.41849965e-01,
          1.90779902e-02, -1.51620254e-01, -3.67728502e-01,
          -1.19724244e-01, 5.00395289e-03, 4.88707095e-01,
          5.30036204e-02, 2.38344166e-02, 8.81213173e-02,
          -5.76010235e-02, 1.40641734e-01, 3.34514141e-01,
          -8.11340034e-01, -1.74021706e-01, 3.52013677e-01,
          5.61073661e-01, -1.19773161e+00, 4.61663231e-02,
          6.01083279e-01, 7.10536957e-01, -2.27211043e-01,
          6.58411264e-01, -3.19070816e-02, -3.09233963e-01,
          -2.29346916e-01, -8.92595649e-02, -2.01290995e-01,
          3.33257504e-02, 1.15739785e-01, 2.77479559e-01, 5.84898412e-01,
          2.58153409e-01, -8.50785747e-02, -1.59439906e-01,
          -4.38672423e-01, -1.53394520e-01, 1.90961182e-01,
          1.14386469e-01, 7.79800043e-02, -5.47509920e-03,
          1.56576306e-01, 3.71576518e-01, 2.44010575e-02,
          -1.60972312e-01, 6.50410503e-02, -3.11431438e-01,
          2.68851191e-01, 9.86026600e-02, 1.85681909e-01, 1.23077638e-01,
          4.69448894e-01, 4.90362912e-01, -3.13119404e-02,
          -5.54939806e-01, 1.37440711e-01, 2.11262882e-01,
          -6.76122829e-02 ]
      - [ 2.66799796e-02, -2.29131520e-01, 3.13328028e-01,
          -3.98646742e-02, -1.88379273e-01, 9.84437168e-02,
          3.96237046e-01, 2.51464069e-01, 5.02466679e-01,
          -7.56880327e-04, -1.44744933e-01, 4.77655530e-01,
          -4.45051044e-01, -6.52756929e-01, 3.53044458e-02,
          4.57442671e-01, -3.23728547e-02, -2.80802131e-01,
          2.54390329e-01, -1.80484857e-02, 1.53279945e-01,
          -2.14258432e-01, 5.50955385e-02, -7.82535300e-02,
          3.24045569e-01, -3.64894569e-01, 2.30306327e-01,
          1.91124246e-01, -4.07689035e-01, 8.37186426e-02,
          -1.04444914e-01, -4.96876180e-01, 1.76789254e-01,
          5.14951311e-02, -1.80983812e-01, 2.86216348e-01,
          7.75157884e-02, -1.40726089e-01, -1.24498583e-01,
          2.83353657e-01, -2.48251602e-01, 2.87372619e-01,
          9.96725559e-02, 2.07840204e-01, -5.99156208e-02,
          -2.78419018e-01, 2.88714856e-01, 2.26640329e-01,
          -5.89103222e-01, -7.72730589e-01, -1.01481915e-01,
          6.67464375e-01, 3.34579974e-01, -2.14995161e-01,
          2.28998275e-03, 2.33763367e-01, 3.40959370e-01,
          -1.09516434e-01, -1.36580333e-01, 1.35240898e-01,
          2.30615541e-01, -2.18882635e-01, -4.01267290e-01,
          -3.68676066e-01, -2.51734644e-01, -2.05379352e-01,
          -1.86641693e-01, -8.51646543e-01, 5.61883032e-01,
          4.00557250e-01, 2.64039248e-01, 6.63846508e-02, 2.54466962e-02,
          -2.65238702e-01, -2.12022275e-01, -1.70444727e-01,
          -2.94102374e-02, -1.55174121e-01, -3.62351596e-01,
          1.02565616e-01, 2.85443097e-01, 6.83119521e-02,
          -1.26947671e-01, -3.13984543e-01, -5.25671363e-01,
          -2.41357893e-01, -2.36777917e-01, -5.01577631e-02,
          -8.81269798e-02, 1.89480796e-01, 2.91096091e-01,
          6.93007648e-01, 4.30133760e-01, 1.93057224e-01,
          -6.55642331e-01, 3.81654978e-01, -3.09329778e-01,
          -4.05518413e-01, -5.84711194e-01, -2.84980863e-01,
          -7.07305253e-01, -2.48256162e-01, 5.37395366e-02,
          -2.99399376e-01, 1.81579351e-01, 3.28945756e-01,
          7.25883663e-01, 4.50146079e-01, 7.90522993e-02,
          -5.99529110e-02, -9.01448250e-01, -3.80963087e-01,
          2.55475610e-01, -3.20777744e-01, -2.68268138e-01,
          -1.43505588e-01, 1.48406506e-01, 6.05235249e-02,
          6.37591854e-02, 1.20528825e-01, -7.83710599e-01,
          7.44674653e-02, -2.15786129e-01, -4.68634874e-01,
          -3.77944022e-01, -8.43342245e-02, -2.59363979e-01,
          5.32528043e-01, 7.29904890e-01, 7.39568621e-02, 4.62555960e-02,
          2.59027392e-01, -2.81210750e-01, -4.79422100e-02,
          -5.88883758e-01, -4.35295790e-01, -1.30109653e-01,
          4.53745544e-01, -3.96827273e-02, -3.49697649e-01,
          -6.27738059e-01, 2.94049531e-01, 3.01504999e-01,
          -1.36941850e-01 ]
      - [ -2.09293980e-02, -4.13572967e-01, -3.79437651e-03,
          -4.36702557e-03, -2.62852535e-02, -3.67438025e-03,
          2.64628172e-01, 2.51873255e-01, 4.93965179e-01,
          -1.46568760e-01, 1.33353341e-02, 5.48868299e-01,
          -2.64651507e-01, -4.38868523e-01, -2.49923006e-01,
          5.96844912e-01, 1.47370830e-01, -1.73271656e-01,
          1.46441013e-01, 2.52031654e-01, -7.27867186e-02,
          -3.35063577e-01, -1.89209532e-03, 1.05618507e-01,
          2.17330292e-01, -1.72325179e-01, -4.34102863e-02,
          3.86857003e-01, -3.72791886e-01, 2.89069936e-02,
          1.33409545e-01, 7.47184902e-02, -8.49994272e-02,
          -1.38544530e-01, 1.31260946e-01, 3.21261138e-01,
          -9.50008854e-02, -6.72151968e-02, -3.35556418e-01,
          4.99692746e-02, -1.88212663e-01, 7.83753861e-03,
          9.21035931e-02, 3.48333001e-01, 9.19857174e-02,
          -1.51859224e-01, 3.33446972e-02, 2.65275002e-01,
          -2.76407123e-01, -4.01173294e-01, -1.13508523e-01,
          2.20951617e-01, 9.55569148e-02, -2.53877100e-02,
          2.45640293e-01, 2.54835486e-01, 3.74667607e-02,
          -2.49484852e-01, 2.27544770e-01, 4.15185392e-01,
          1.13572799e-01, -3.96835744e-01, -2.98323929e-01,
          -3.33011389e-01, -2.83247560e-01, 1.71905085e-01,
          2.02605245e-03, -5.58234891e-03, 5.61485708e-01,
          2.45633692e-01, 3.95229608e-01, 1.73600182e-01, 9.71836150e-02,
          -1.53286457e-01, -2.14078382e-01, -8.91760290e-02,
          -5.70493117e-02, -2.91839652e-02, -1.30014002e-01,
          1.19107500e-01, 2.76707649e-01, 1.87069565e-01, 2.02363282e-02,
          7.51678459e-03, -4.14527170e-02, -4.29655127e-02,
          1.12227254e-01, -2.40966782e-01, -2.48024195e-01,
          1.34508256e-02, 1.15615306e-02, 2.79260933e-01, 3.62740725e-01,
          4.05372560e-01, -1.13965556e-01, 4.37387265e-02,
          -1.11710958e-01, 9.48655605e-02, -2.27529511e-01,
          -3.68821055e-01, -2.01380357e-01, -4.36999053e-02,
          2.23189399e-01, -2.94662833e-01, -7.89813325e-02,
          4.87289339e-01, 4.04391974e-01, 2.72368133e-01, 1.81169674e-01,
          1.50378451e-01, -4.78032470e-01, -1.99540496e-01,
          -8.07160139e-02, 4.17630784e-02, 4.07165922e-02,
          -7.64156431e-02, 1.50314808e-01, 1.61375165e-01,
          7.44082108e-02, 6.88057840e-02, -2.57213473e-01,
          -1.96188807e-01, 2.40438536e-01, -1.67450085e-01,
          -2.22266793e-01, 4.06350195e-02, -1.72873095e-01,
          -3.04158591e-02, 5.24605989e-01, 1.50500968e-01,
          -2.16009259e-01, 1.63899258e-01, 1.47236273e-01,
          1.61132216e-01, -1.72721177e-01, -2.29936913e-01,
          -1.21157579e-01, 2.46592343e-01, 2.80149758e-01,
          -2.56225884e-01, -2.77356923e-01, 4.01599586e-01,
          3.60656857e-01, -3.22630331e-02 ]
      - [ -1.51364818e-01, -1.60434127e-01, 9.55180824e-02,
          -3.20322901e-01, -2.47347027e-01, 3.80808860e-02,
          5.01319729e-02, 9.78671908e-02, -4.31736261e-02,
          -2.71086872e-01, 1.21039577e-01, 3.93933952e-01,
          -5.65727875e-02, -3.37529957e-01, 2.05227956e-01,
          2.64757872e-01, 1.82058647e-01, 8.00670907e-02, 1.41789451e-01,
          5.12940995e-02, 1.80106863e-01, 1.08820744e-01,
          -2.14357227e-01, 1.16604762e-02, 8.16841125e-02,
          -9.59762633e-02, -7.14624003e-02, 8.34131762e-02,
          3.37211728e-01, 1.46219805e-01, 1.09333403e-01,
          -2.41714776e-01, -2.73413748e-01, -4.50839013e-01,
          4.09079269e-02, 1.88057665e-02, -3.19676101e-01,
          2.15698276e-02, 2.57998675e-01, -2.62983710e-01,
          -5.58789074e-01, 1.84729218e-01, 1.91758379e-01,
          2.54162014e-01, 2.62286427e-04, 9.31288078e-02,
          -5.30463606e-02, -1.24390855e-01, -3.95169258e-01,
          -3.62319827e-01, -1.13153115e-01, 1.03710040e-01,
          3.00895810e-01, 8.05118978e-02, 2.19251290e-02, 1.24300690e-03,
          5.59840500e-02, 1.35936007e-01, -1.65186733e-01,
          -3.11214123e-02, -6.97794557e-02, 6.08309098e-02,
          3.11607778e-01, -2.26177201e-01, 2.40753114e-01,
          5.70308805e-01, 1.95823714e-01, -2.99336880e-01,
          1.17230259e-01, -1.28300237e-02, 1.47343919e-01,
          -2.51193345e-01, -4.28395569e-01, -2.69670248e-01,
          1.27497911e-01, 2.68481094e-02, -1.53085798e-01,
          -7.99334347e-02, 3.15087557e-01, 2.92903870e-01,
          1.61757827e-01, -2.64894247e-01, -1.47375301e-01,
          -1.53993681e-01, -9.09893364e-02, 6.88864887e-02,
          2.47884169e-01, 1.81413159e-01, 1.41266957e-01,
          -7.23880231e-02, 7.27791712e-02, -1.30021535e-02,
          -2.89044231e-01, 1.00431763e-01, -7.71617740e-02,
          2.87583880e-02, -1.20429195e-01, 1.35380968e-01,
          -1.65587366e-01, -1.52894139e-01, 8.40698838e-01,
          3.01391929e-01, -5.47944494e-02, -5.15042663e-01,
          -6.94556385e-02, 3.98460716e-01, -1.70125231e-01,
          -4.23451513e-01, -3.11346859e-01, -3.33240151e-01,
          -1.24209434e-01, -4.53617536e-02, 1.57175019e-01,
          -2.62117743e-01, 4.77203205e-02, 1.24502098e-02,
          4.80867960e-02, -2.44611666e-01, -3.98509592e-01,
          -1.20720835e-02, 3.37783098e-01, -1.67555138e-01,
          6.14351891e-02, 8.45313668e-02, 2.93162018e-02, 5.48398495e-02,
          2.16342673e-01, -9.18756053e-02, -4.70763035e-02,
          1.25077978e-01, -5.58948331e-02, 2.12905928e-01,
          -3.39742512e-01, 3.55185866e-02, 9.69309062e-02,
          2.12042272e-01, 1.29840285e-01, 4.29892652e-02,
          -1.83549136e-01, 4.30183500e-01, -5.20506315e-02,
          -1.01922929e-01, -3.12165260e-01, 5.63727738e-03 ]
      - [ 3.70163135e-02, 1.72096714e-01, 1.46613389e-01,
          -6.73037618e-02, -2.10633233e-01, 3.21636796e-01,
          9.39673841e-01, 1.07874990e+00, 1.67448610e-01,
          -6.02939188e-01, 8.49021912e-01, -3.95626612e-02,
          1.02294378e-01, -1.89548954e-01, 2.19288051e-01,
          8.76071811e-01, 1.19034797e-01, -1.37818336e-01,
          -1.67196304e-01, -5.83031587e-02, -5.19407988e-01,
          4.47301030e-01, 3.44523042e-01, -1.44362748e-01,
          1.64088845e-01, 1.79215088e-01, 2.35283777e-01, 2.81518549e-01,
          -4.98725697e-02, 4.26162146e-02, 8.48898590e-02,
          1.86573476e-01, 6.47263750e-02, 1.52965821e-02,
          -4.13884103e-01, -7.32556507e-02, 7.10283127e-03,
          -4.12128478e-01, -3.68434340e-01, 2.58832633e-01,
          -2.44197398e-01, -1.02192806e-02, 7.13318110e-01,
          1.14675057e+00, 5.34848511e-01, 6.05706751e-01, 1.08534396e+00,
          -5.58636896e-02, -6.83327317e-01, -7.75745928e-01,
          3.61143686e-02, 2.51555741e-01, 3.03162992e-01, 3.51549774e-01,
          5.13713479e-01, 1.43274292e-01, -1.23151399e-01,
          3.32281768e-01, -2.05643475e-01, -7.24910259e-01,
          -3.43153104e-02, 4.06333655e-01, 4.49792109e-02,
          4.35984045e-01, 4.95823264e-01, -2.88445979e-01,
          2.50457704e-01, 2.95210421e-01, 2.81962678e-02, 8.36420879e-02,
          -1.79118395e-01, -4.75222617e-01, 4.03087467e-01,
          -1.05637193e-01, 2.86872834e-01, 2.78317213e-01,
          -2.85368621e-01, -6.83727786e-02, -4.52219099e-01,
          -4.82732028e-01, 8.29934299e-01, 1.18652153e+00,
          3.92966956e-01, -4.74654764e-01, -4.17253435e-01,
          4.85137194e-01, 2.72758037e-01, -6.72507524e-01,
          -3.91351283e-01, -4.34832394e-01, 1.26165524e-01,
          4.55744654e-01, -1.35024756e-01, -3.70865196e-01,
          1.55692354e-01, -2.89419085e-01, 2.70709783e-01,
          -9.30570737e-02, 5.17430305e-02, -6.09980747e-02,
          1.96814314e-01, -6.83112815e-02, 9.09290016e-02,
          3.42005998e-01, 3.21376286e-02, -4.81081158e-02,
          -1.02840088e-01, 2.24951878e-01, 3.90963852e-01,
          -5.00209689e-01, 2.11099893e-01, -5.44452704e-02,
          4.70843196e-01, -3.22242141e-01, -9.75331843e-01,
          -4.48796719e-01, 2.70466506e-01, 4.59839195e-01,
          -9.70570594e-02, -2.62063533e-01, -8.49869400e-02,
          2.81320840e-01, 9.35773030e-02, -2.68399656e-01,
          -9.78152812e-01, -1.56368777e-01, 5.01117185e-02,
          5.52645139e-02, -1.03783056e-01, 9.77699757e-02,
          5.93676418e-02, -2.21265808e-01, -7.02448264e-02,
          3.11173387e-02, -1.02056041e-01, -1.32852346e-01,
          -1.15399219e-01, -1.85552314e-01, -1.82586893e-01,
          -3.48674893e-01, 2.29093015e-01, 6.93823516e-01,
          -1.04914628e-01, 8.08521826e-03 ]
      - [ 1.41813561e-01, 9.97215733e-02, 4.81832445e-01,
          -3.40091088e-03, -4.40783910e-02, -1.01605661e-01,
          1.55780300e-01, 2.26876929e-01, 2.08235711e-01,
          -3.40485305e-01, 4.19681221e-02, 5.01403272e-01,
          1.88515574e-01, -7.15674907e-02, -1.15659200e-01,
          3.86306852e-01, 4.91485834e-01, -1.11023806e-01,
          -2.28359744e-01, 2.75573194e-01, 3.45488638e-01,
          1.34912819e-01, -6.04197495e-02, -8.10704827e-02,
          3.82048607e-01, 1.90555409e-01, -2.28794113e-01,
          8.44257884e-03, 2.80913711e-01, 1.05147839e-01,
          -4.14747894e-02, 5.01779579e-02, 3.95972840e-03,
          1.28612742e-01, -1.93757355e-01, -7.73552880e-02,
          -3.17470431e-01, -1.21638142e-01, 4.34079647e-01,
          7.76782483e-02, -1.95347741e-01, -4.60879765e-02,
          1.96130395e-01, 3.12200397e-01, 1.58299133e-01,
          -1.17317133e-01, -1.84708685e-02, 2.28473976e-01,
          -1.21912817e-02, -2.86639363e-01, -1.04316562e-01,
          9.49809793e-03, 4.70137298e-01, 1.41143635e-01,
          -4.21667285e-02, -1.27195446e-02, 1.31612509e-01,
          -3.58107053e-02, -2.69903213e-01, -2.13714212e-01,
          1.89783230e-01, 1.33860722e-01, -4.45769727e-02,
          2.29246750e-01, 3.07903022e-01, 6.06985614e-02,
          -4.31157276e-02, 1.96802299e-02, 1.56633168e-01,
          -1.38224646e-01, -1.51662022e-01, -2.22883284e-01,
          -1.33839041e-01, -1.45707056e-01, 1.48907393e-01,
          3.22350442e-01, -3.16409506e-02, -3.01839978e-01,
          6.43809885e-02, 1.35796055e-01, 3.07834208e-01, 5.98730631e-02,
          1.45997301e-01, -1.60843551e-01, -1.24544933e-01,
          2.23096669e-01, -5.28651960e-02, -9.03662741e-02,
          7.15009421e-02, 2.20053360e-01, 1.58119023e-01, 5.68440445e-02,
          -1.91658497e-01, -2.07156137e-01, 3.39225642e-02,
          -1.41805485e-01, 2.28400659e-02, 1.30592003e-01,
          2.46339902e-01, 2.83028841e-01, 2.40797877e-01,
          -8.97982344e-02, 8.02951381e-02, -4.43434715e-02,
          1.45399547e-03, -9.97233614e-02, -2.86621749e-01,
          4.04903553e-02, -6.41888827e-02, -3.13438952e-01,
          -5.57626337e-02, 7.65940994e-02, 3.07681054e-01,
          -2.80892521e-01, -2.27882192e-01, -4.85473946e-02,
          5.63982539e-02, -2.99128946e-02, -1.07323110e-01,
          -1.56666934e-01, -1.58791631e-01, 1.36565968e-01,
          2.49390632e-01, -2.23162651e-01, -5.96090257e-02,
          -9.71674174e-02, -4.17971723e-02, -1.69068381e-01,
          -1.06338352e-01, -1.51148066e-01, 1.47763669e-01,
          1.32310972e-01, -9.27563906e-02, -1.38661200e-02,
          7.61979893e-02, 2.77172867e-02, -1.48488835e-01,
          -1.56886578e-02, 4.93609682e-02, 2.12594897e-01,
          -2.32010763e-02, -2.14139745e-02, -3.21749970e-02,
          2.99733076e-02 ]
      - [ -2.65638620e-01, -8.73169303e-02, -4.95540589e-01,
          -1.09819867e-01, -2.59646419e-02, 2.20543131e-01,
          5.73356867e-01, -1.43912733e-01, -2.44106397e-01,
          -7.49865323e-02, 2.82523148e-02, 3.53735499e-02,
          6.19146116e-02, -1.19491540e-01, 6.50411785e-01,
          2.11268589e-01, 2.29340374e-01, 2.59801596e-02,
          -2.77782064e-02, -2.62126237e-01, 4.69578683e-01,
          3.34770232e-01, -9.85367447e-02, -3.73579919e-01,
          1.76931590e-01, -2.73499768e-02, 6.31427288e-01,
          2.40967050e-01, 1.80453271e-01, 7.32871830e-01, 9.93142426e-02,
          1.11089712e-02, -3.09318841e-01, -4.47734475e-01,
          3.47452790e-01, -1.56706735e-01, 1.77172095e-01,
          7.58708492e-02, -2.76314110e-01, 2.13918053e-02,
          -1.20846584e-01, 2.52742112e-01, 6.20187938e-01,
          2.50001520e-01, 4.58329469e-02, 5.29162765e-01, 2.92405009e-01,
          -7.23887146e-01, 1.79729447e-01, -9.07397270e-02,
          1.82634726e-01, -9.79965404e-02, 8.45848322e-02,
          -9.23174769e-02, -1.95318922e-01, 8.59835967e-02,
          -9.58788246e-02, 6.61455154e-01, -2.61825621e-01,
          -2.69130647e-01, 1.71163067e-01, 3.49023819e-01,
          7.69068122e-01, -9.66513872e-01, 3.24692726e-01,
          1.09755480e+00, 2.14409798e-01, -6.10134840e-01,
          3.41299862e-01, 5.89453518e-01, 5.14344335e-01,
          -9.81964618e-02, -2.02893496e-01, -2.73497075e-01,
          -2.48111621e-03, 2.19794258e-01, 4.91070449e-01,
          1.68103665e-01, -7.41482601e-02, -8.99057463e-02,
          -1.30255660e-02, 2.38658130e-01, 4.85937029e-01,
          9.08027440e-02, -1.70608073e-01, -3.18022668e-02,
          6.74738467e-01, 3.79975885e-01, -4.42223042e-01,
          -8.16480458e-01, 5.16611449e-02, -5.92119992e-01,
          -5.14149547e-01, 4.63931590e-01, 3.19514833e-02,
          -1.66746005e-01, 5.14917493e-01, 4.09680843e-01,
          4.34568882e-01, -3.62974853e-04, 7.26191938e-01,
          3.77721876e-01, 9.37947184e-02, -2.78538823e-01,
          -3.83950949e-01, 3.17703873e-01, -5.36850318e-02,
          -6.85644925e-01, -5.60766384e-02, -1.82567045e-01,
          1.72986478e-01, -8.97169411e-02, 2.26261336e-02,
          1.61224887e-01, -1.83323212e-03, -1.65839735e-02,
          -5.61765768e-02, -2.70206213e-01, -1.02702253e-01,
          -1.04643479e-02, -3.42312604e-02, 7.05381706e-02,
          -9.11152735e-02, 8.97021890e-02, 8.45646337e-02,
          -8.39492679e-02, 4.29251522e-01, 2.43567657e-02,
          -4.36699092e-01, 2.50033468e-01, 1.96460634e-01,
          -2.33643264e-01, -3.99120927e-01, 4.58035916e-02,
          2.76319087e-01, 2.42038742e-01, 1.53067261e-01, 6.01000823e-02,
          2.23053808e-04, 2.35223442e-01, 3.45425129e-01,
          -1.93467274e-01, -2.46307880e-01, -5.68560846e-02 ]
      - [ -7.42510617e-01, -4.03984457e-01, 1.70854986e-01,
          -1.90928191e-01, -2.82978565e-01, -4.46836680e-01,
          6.67050838e-01, 7.60013163e-01, 2.72716254e-01,
          -3.00172985e-01, 1.65034756e-01, 1.05203472e-01,
          2.54088014e-01, -8.66652369e-01, 3.50748628e-01,
          7.22082436e-01, -1.25714749e-01, -5.85881397e-02,
          -7.90228620e-02, -2.95118511e-01, 1.53125131e+00,
          7.02031374e-01, 4.57225263e-01, -1.14985275e+00,
          8.04138184e-01, 1.74940243e-01, 9.39931124e-02,
          -4.00199741e-01, 3.28004211e-01, 3.25176746e-01,
          5.41417897e-01, 6.17374573e-03, -6.25424147e-01,
          -2.33171150e-01, -1.52948156e-01, -5.91631383e-02,
          -5.49720347e-01, -2.11686850e-01, 3.10485326e-02,
          2.12358171e-03, -3.98240805e-01, 6.67471051e-01,
          2.58194860e-02, 2.72233158e-01, 1.78771973e-01, 3.26494187e-01,
          3.57454419e-01, -4.79305744e-01, -1.21072340e+00,
          -6.96376443e-01, 6.12350106e-01, 6.83792174e-01,
          -2.63111711e-01, -2.34862208e-01, -7.18011931e-02,
          -1.10735580e-01, 6.14240229e-01, 6.87123835e-01,
          -3.36765468e-01, -1.05468452e+00, 9.54820886e-02,
          7.39701867e-01, 4.24494565e-01, -3.54743332e-01,
          5.45798957e-01, -6.66451678e-02, -1.50408164e-01,
          -6.01469100e-01, 5.02092004e-01, 1.45965934e-01,
          -4.68367428e-01, 2.57782251e-01, 7.65792606e-03,
          -3.02941680e-01, -4.76729237e-02, -3.39401588e-02,
          6.75264895e-01, -2.81211585e-01, 7.67444521e-02,
          -2.25100428e-01, -3.78558010e-01, 4.26856220e-01,
          -5.14197111e-01, -5.01881957e-01, -4.46235508e-01,
          3.00159633e-01, 1.37033045e-01, 3.52592081e-01, 2.27097079e-01,
          -2.18440723e-02, 1.88946292e-01, 3.49110782e-01,
          -2.94230521e-01, -8.95884726e-03, 2.25991920e-01,
          -5.76091528e-01, 5.50150611e-02, 3.08043420e-01,
          3.32923263e-01, 2.12358728e-01, 5.40834486e-01,
          -8.30636799e-01, -5.67427516e-01, -3.72638464e-01,
          2.64594078e-01, 3.50360662e-01, -4.33929086e-01,
          -5.09937048e-01, 1.69310465e-01, -5.41530967e-01,
          -4.36643690e-01, -2.80539066e-01, 6.86035752e-01,
          -5.13480067e-01, -3.79700392e-01, -1.82918280e-01,
          2.16087505e-01, 2.10333824e-01, -2.69891590e-01,
          8.94921422e-02, -2.68792927e-01, 1.78512737e-01,
          -4.21785027e-01, -5.63415468e-01, -2.61493653e-01,
          3.06479745e-02, 2.03008771e-01, -1.59601733e-01,
          -2.89308697e-01, 2.94641882e-01, 7.16102421e-02,
          1.24474600e-01, 2.05675699e-02, -6.78051636e-02,
          3.29109758e-01, -2.13557243e-01, -4.43537265e-01,
          -1.50505200e-01, -5.14855206e-01, 7.49365807e-01,
          1.54810369e-01, -1.86352074e-01, -1.55053195e-02,
          -4.76515852e-02 ]
      - [ -2.88739353e-01, -3.68151933e-01, 8.97114798e-02,
          -5.35421222e-02, -1.77840546e-01, 1.54160336e-01,
          7.10040510e-01, 7.55828321e-01, 2.96501577e-01,
          -4.67869133e-01, 5.34038842e-01, 2.64148504e-01,
          -3.18200707e-01, -5.89323401e-01, -1.81111996e-03,
          1.21655083e+00, -1.42506570e-01, -1.04323663e-01,
          -1.53674349e-01, 8.35038126e-02, 2.85641879e-01,
          -2.64241491e-02, -1.96675569e-01, -8.57729018e-02,
          1.95876598e-01, -2.62036383e-01, 5.39382659e-02,
          2.98623532e-01, 2.34004185e-01, 1.20152757e-01, 1.58142179e-01,
          4.73361373e-01, -4.30307716e-01, 7.63063580e-02,
          2.87995040e-01, -2.86276311e-01, -4.24877733e-01,
          -3.23128849e-01, 1.18553653e-01, 5.39492667e-01,
          -4.72333729e-01, -3.87997538e-01, 3.91177610e-02,
          9.85665202e-01, 4.68996823e-01, 6.11322343e-01,
          -1.03226006e-01, -4.91893530e-01, -1.07145691e+00,
          -7.22770274e-01, -2.18901467e-02, 2.56820172e-01,
          1.30785659e-01, -3.17304403e-01, 3.40233773e-01,
          2.45966509e-01, -2.23974273e-01, -1.15774274e-01,
          3.15495655e-02, -2.78207272e-01, -1.68307424e-01,
          2.02586010e-01, 3.74099433e-01, -1.61675096e-01,
          2.51878947e-01, 4.63365555e-01, -3.11822683e-01,
          -1.04470313e-01, 5.40740430e-01, 3.51492167e-01,
          7.12819934e-01, 1.80261150e-01, 9.05546620e-02,
          -4.30534512e-01, 2.19268072e-02, 8.76854640e-03,
          -1.55671626e-01, 4.54942107e-01, -2.65828937e-01,
          1.22881800e-01, 1.28048256e-01, 3.16521078e-02,
          -2.31823269e-02, -3.04351468e-02, 3.69118840e-01,
          6.20293394e-02, 4.71188217e-01, -1.42523825e-01,
          -3.33905071e-01, -3.62918347e-01, 1.26281723e-01,
          5.01332521e-01, -3.52632493e-01, 6.23101652e-01,
          -1.87095907e-02, -9.41490233e-02, 2.28829220e-01,
          3.52858663e-01, 1.38247594e-01, -1.42214164e-01,
          1.09523487e+00, -4.70335335e-01, -4.18825187e-02,
          -5.80435693e-01, -3.66104782e-01, 1.40853846e+00,
          -3.73631179e-01, -2.95176923e-01, 9.46243554e-02,
          -8.19491223e-02, -1.22998253e-01, -2.22259328e-01,
          2.66318414e-02, 5.12529671e-01, -4.59925197e-02,
          -2.40421981e-01, -2.08301097e-02, -6.62260950e-02,
          -2.80727655e-01, 5.53118050e-01, -3.74075994e-02,
          -4.30004776e-01, 5.52445650e-01, 1.83079720e-01,
          -1.83293130e-02, -6.90817311e-02, 8.94141421e-02,
          -7.44229928e-02, -5.81726469e-02, 5.31726778e-01,
          -4.60884906e-02, 3.35728049e-01, 5.84558286e-02,
          1.45760909e-01, 3.20631936e-02, 8.37549940e-02, 1.13080673e-01,
          4.93290322e-03, -5.64995296e-02, 6.51166737e-01,
          2.72795945e-01, 1.84521481e-01, -2.92668790e-02,
          -4.13959883e-02 ]
      - [ 9.75017473e-02, 3.56443316e-01, -3.60367559e-02,
          4.01436351e-03, 3.61095443e-02, -2.60809204e-03,
          2.19882838e-02, 4.28723805e-02, 6.27294416e-03,
          -2.36520432e-02, 2.41739407e-01, -1.45749748e-01,
          -2.78967526e-03, 4.95156124e-02, 7.47277215e-02,
          7.23895878e-02, 1.90434996e-02, -1.32335886e-01,
          -5.98204471e-02, -8.16878602e-02, -3.69785815e-01,
          -5.18251844e-02, 1.07168313e-02, 3.50778922e-02,
          2.46820793e-01, 1.60920531e-01, 2.14892462e-01,
          -7.89362341e-02, -9.25815701e-02, -1.56401038e-01,
          -2.88085826e-02, 3.55766304e-02, 6.73777983e-02,
          1.24214785e-02, -1.39676919e-02, -1.76295713e-01,
          -1.07071353e-02, -1.49790227e-01, -6.04445823e-02,
          1.36087969e-01, 2.73901731e-01, 7.09779337e-02,
          -3.63763534e-02, -7.29490211e-03, 8.44111592e-02,
          -5.40281944e-02, 2.43718415e-01, 1.66194942e-02,
          1.79026695e-03, 1.05273522e-01, 1.92254514e-01,
          -3.62415500e-02, -1.61729217e-01, -1.47797763e-01,
          4.51459587e-02, 1.71246324e-02, -1.65198162e-01,
          -1.19962983e-01, 4.26357649e-02, 2.93201562e-02,
          1.22534461e-01, 4.12435643e-02, -1.94955210e-03,
          1.66942880e-01, -3.14380258e-01, -4.05361146e-01,
          -1.64030209e-01, 2.19291717e-01, 8.88250694e-02,
          -2.01626252e-02, -6.84298500e-02, 1.70562863e-01,
          3.51909190e-01, 6.43830374e-02, -1.30750492e-01,
          7.04731941e-02, 3.79794836e-01, -1.15538482e-02,
          -5.12715220e-01, -9.75520909e-02, 9.25608203e-02,
          7.04008460e-01, 1.85035467e-01, -4.62474227e-02,
          -1.66149676e-01, 2.55614758e-01, -1.81353930e-03,
          -5.37305236e-01, -2.55288571e-01, 2.37190843e-01,
          1.03318542e-01, 1.74491972e-01, -6.46949336e-02,
          -2.67111450e-01, 1.18313693e-01, 6.65591061e-02,
          1.43016443e-01, -1.36420682e-01, -5.36338054e-02,
          1.06375732e-01, -4.05144304e-01, -1.97606161e-01,
          -1.76461712e-02, 2.66141832e-01, -1.72234792e-02,
          -2.18401641e-01, 5.55927753e-02, 2.48852894e-01,
          2.77806163e-01, -2.84014433e-03, 2.01150417e-01,
          -3.58726084e-02, 2.24329792e-02, -2.98209190e-01,
          -4.63529140e-01, -8.91701952e-02, 4.90597710e-02,
          2.14004219e-01, 1.65414020e-01, -1.34614632e-01,
          -5.12532480e-02, 3.94981295e-01, 1.47158772e-01,
          -4.54906970e-01, -3.19000721e-01, 1.98566634e-02,
          -9.71012637e-02, 9.70546901e-02, -1.08061835e-01,
          -2.15474050e-02, 4.33457904e-02, 9.47418064e-02,
          1.62727445e-01, 5.94505668e-02, -6.89475536e-02,
          -1.30811602e-01, -3.44867110e-02, -4.92265224e-02,
          2.91868206e-02, -1.32832050e-01, -3.27376947e-02,
          3.10303062e-01, 4.01031524e-01, 5.32614514e-02 ]
      - [ 5.88396847e-01, 3.37525934e-01, -1.89369302e-02,
          1.11285634e-01, -2.52010971e-01, -4.08506453e-01,
          -2.20945910e-01, -4.95195873e-02, 2.64247745e-01,
          -8.10924917e-02, 1.97018057e-01, 5.33811189e-02,
          -9.12963748e-02, 2.37598959e-02, 1.13147140e-01,
          4.66964357e-02, 4.14457142e-01, -2.23974772e-02,
          1.05639957e-01, -2.99567264e-02, 6.73504323e-02,
          -2.62147367e-01, 7.13139307e-03, 4.62047867e-02,
          7.02168226e-01, 3.59948903e-01, -2.09638372e-01,
          1.11307940e-02, 2.01370209e-01, 1.67418793e-02,
          -3.21277417e-02, -6.86385632e-02, -1.40768290e-01,
          -4.08363082e-02, 3.34242918e-03, -1.47451445e-01,
          -1.81533769e-02, -2.56301314e-01, 8.19069326e-01,
          4.45259139e-02, 3.37963879e-01, -4.88840222e-01,
          2.39686593e-02, 1.75762609e-01, 1.66146368e-01,
          -2.66285330e-01, 1.29022211e-01, 4.89482522e-01,
          -5.70966452e-02, 1.00776717e-01, 1.25584424e-01,
          9.56497565e-02, 1.94075465e-01, 2.35691965e-01, 1.10053390e-01,
          4.77733985e-02, 1.89618289e-01, -3.39710176e-01,
          -2.26809382e-01, 4.20591265e-01, 5.90449929e-01,
          1.02212720e-01, -2.62632996e-01, 9.60882843e-01,
          2.66974121e-01, -2.05045655e-01, -2.18088537e-01,
          1.72455639e-01, 4.99778502e-02, -1.82454079e-01,
          -3.13238293e-01, -1.56537801e-01, 7.21331537e-01,
          -2.62236316e-02, 5.83236754e-01, 1.88103005e-01,
          -3.46666351e-02, -5.20916641e-01, -4.54308867e-01,
          8.09955671e-02, 2.97318280e-01, 3.59192044e-01, 1.27616331e-01,
          -4.16161627e-01, -2.64731884e-01, 3.27117741e-01,
          -9.46385711e-02, -5.04067838e-01, -4.31080349e-02,
          3.76679331e-01, 1.66897863e-01, -1.11880548e-01,
          4.61605728e-01, -1.81685999e-01, 3.23879451e-01,
          -5.19815385e-02, 1.63138509e-01, -1.03774071e-02,
          3.84642154e-01, 9.09083903e-01, -3.05408925e-01,
          -3.26681316e-01, 1.80969074e-01, 5.67980468e-01,
          -2.49152798e-02, -5.50018728e-01, -4.05125141e-01,
          5.00942826e-01, 5.32890558e-01, -2.76248962e-01,
          1.21573702e-01, 1.49878368e-01, -8.50476548e-02,
          -4.29347932e-01, -1.64495364e-01, -1.30318897e-02,
          4.56140406e-05, 1.64393142e-01, 8.67210925e-02,
          -1.19531766e-01, -5.06913245e-01, 2.96553910e-01,
          5.62585369e-02, -4.90179718e-01, -2.45219693e-01,
          -1.83752716e-01, -4.77884889e-01, -3.92550588e-01,
          3.36893141e-01, -1.83162272e-01, 2.11683065e-01,
          1.58193737e-01, 1.42829686e-01, 2.96423193e-02,
          -3.88720259e-02, 6.60765842e-02, -9.42283571e-02,
          -4.68803644e-02, 2.68209159e-01, 8.38836432e-02,
          -2.49525130e-01, -5.83187602e-02, -1.54789621e-02,
          -5.15673421e-02 ]
      - [ 1.59013137e-01, 9.86359790e-02, -6.22195125e-01,
          2.08581075e-01, 5.00678241e-01, 2.44603813e-01, 3.33731949e-01,
          3.35703075e-01, -9.48675200e-02, 2.33887479e-01,
          1.56875327e-01, -8.25844646e-01, 9.10249949e-02,
          5.85515141e-01, 6.91124573e-02, -7.45891690e-01,
          -3.47137243e-01, -7.25658089e-02, -2.43409082e-01,
          -2.00885981e-01, -1.15345628e-03, 9.68042314e-02,
          6.81626946e-02, -7.42412627e-01, -3.34386617e-01,
          2.70480722e-01, 1.59888327e-01, 3.54383402e-02,
          -1.13810360e-01, 4.70504873e-02, 2.06875168e-02,
          1.67086974e-01, -1.28924400e-01, -1.30629510e-01,
          -7.51956925e-02, -9.07859057e-02, 5.88317275e-01,
          -2.46635482e-01, -4.87820476e-01, 5.17464399e-01,
          1.04541624e+00, 2.12173253e-01, -9.91740543e-03,
          -2.39951506e-01, 2.23636270e-01, 2.20751628e-01,
          3.94261837e-01, 4.15802747e-02, 5.64286053e-01, 5.73635519e-01,
          4.00030524e-01, -7.03353047e-01, -1.10100877e+00,
          -1.78738669e-01, -1.33062959e-01, 5.66618294e-02,
          3.12446713e-01, 2.83469468e-01, -3.74413580e-02,
          -5.29770195e-01, 1.04014911e-02, 4.49130863e-01,
          1.85913593e-01, -2.86259260e-02, -6.90900311e-02,
          -5.14085824e-03, -9.92373377e-02, -1.33489549e-01,
          -1.73710421e-01, 3.15523654e-01, 2.25462347e-01,
          1.04805656e-01, 6.26068115e-01, -8.38744640e-02,
          -2.15826765e-01, -2.47358501e-01, 2.86870003e-01,
          1.23303682e-01, -2.33129799e-01, -4.52194870e-01,
          9.09606144e-02, 3.18750769e-01, 2.37838313e-01, 5.33098042e-01,
          1.68458536e-01, 1.17591336e-01, -1.58328354e-01,
          -2.65002787e-01, -5.48192680e-01, -4.85604227e-01,
          -2.98755318e-01, -1.73461094e-01, 3.82927120e-01,
          -1.41122527e-02, 3.11430752e-01, -1.80709139e-01,
          1.02256104e-01, 4.14742619e-01, 2.59105980e-01, 5.37940376e-02,
          -1.35324121e-01, 9.44440078e-04, -1.03332400e-01,
          2.84161061e-01, -2.02317253e-01, 4.53822404e-01,
          2.92610466e-01, -2.18627200e-01, 4.68662292e-01,
          -4.86506522e-03, 4.40187126e-01, -5.43673098e-01,
          -7.07968324e-02, 5.94561279e-01, -3.36408280e-02,
          1.47972992e-02, 1.60186328e-02, 3.09044510e-01, 3.36210392e-02,
          1.16596907e-01, -1.40766233e-01, -1.44993603e-01,
          -3.37110072e-01, 1.30503759e-01, 5.89936227e-02,
          -2.28390336e-01, -3.29711109e-01, 1.49639681e-01,
          5.69403265e-03, 6.80328161e-02, 4.24710482e-01,
          -4.83674377e-01, -1.89803258e-01, 1.65909320e-01,
          -2.09292412e-01, -3.07324588e-01, 2.45568249e-03,
          -5.09490259e-04, -8.28494579e-02, -2.42744297e-01,
          7.08076954e-02, 7.31136426e-02, 2.51691908e-01, 8.63676444e-02 ]
      - [ 4.25542057e-01, 3.12383205e-01, 1.04623646e-01, 3.52100223e-01,
          2.59957075e-01, -1.85289755e-01, 1.08862936e-01,
          2.57472754e-01, 3.38999420e-01, 3.25831234e-01,
          -1.16890758e-01, -5.42088151e-01, -1.33724928e-01,
          3.10508966e-01, 6.74163476e-02, -1.25709744e-02,
          -3.61894935e-01, -1.93762347e-01, -6.47043530e-03,
          -1.97586656e-01, -9.11774039e-02, -2.28637340e-03,
          2.44673207e-01, -7.21974075e-02, 3.34353387e-01,
          4.84062344e-01, 3.35270107e-01, -3.35512877e-01,
          3.12647849e-01, -8.14539753e-03, 9.35980398e-03,
          -2.52655536e-01, 1.10301092e-01, 4.61389691e-01,
          2.00741783e-01, -4.30801719e-01, -1.62012726e-02,
          -2.53985882e-01, 1.13219798e-01, 9.43240702e-01,
          6.13682032e-01, -6.57512784e-01, -5.16992629e-01,
          -8.31505209e-02, -9.31935161e-02, -6.77587017e-02,
          2.15445403e-02, -2.65770853e-01, 6.30059764e-02,
          7.14112595e-02, 4.53396350e-01, 1.29861116e-01,
          -4.72282350e-01, -3.74587268e-01, 1.45300031e-01,
          -2.81290889e-01, 2.18515590e-01, -1.28273591e-01,
          -4.32726890e-01, -1.31685287e-01, -3.89661603e-02,
          2.66750365e-01, -1.52287424e-01, 1.43429413e-01,
          7.84339383e-02, -5.19941270e-01, -2.90322244e-01,
          -1.82871088e-01, 1.27311513e-01, -2.03140870e-01,
          -5.66129208e-01, -1.28741339e-01, 5.84189534e-01,
          1.59590513e-01, -1.92004796e-02, 1.12202428e-01,
          2.69239545e-01, 3.97291183e-02, -8.54823768e-01,
          -3.96951526e-01, -4.20150697e-01, 1.71258703e-01,
          -2.42362954e-02, -4.16834727e-02, -2.50386149e-01,
          2.27323100e-01, 2.33142860e-02, -5.00725150e-01,
          -6.31954134e-01, 2.48579830e-02, 4.00848776e-01,
          1.05533101e-01, 4.15189773e-01, -6.01681232e-01,
          3.04243769e-02, -1.63015366e-01, -2.09988222e-01,
          -1.81216896e-01, 2.32987881e-01, 1.76507503e-01,
          -9.17421401e-01, -6.70548499e-01, -1.01250425e-01,
          3.02395046e-01, 8.35593715e-02, -4.60398495e-01,
          -3.70705985e-02, 2.87469804e-01, 4.39710110e-01,
          -2.10837796e-01, -3.63811523e-01, 5.03426641e-02,
          1.46903768e-01, -3.71291161e-01, -2.49332756e-01,
          -5.32203205e-02, -5.16729914e-02, 1.79698661e-01,
          4.76557672e-01, 1.49533339e-02, -2.77955860e-01,
          1.53992936e-01, -3.43661159e-01, -7.25172937e-01,
          1.40361369e-01, -1.19748339e-02, -4.00728762e-01,
          3.79969746e-01, 3.12513351e-01, -2.38977075e-01,
          4.18880194e-01, -3.13382983e-01, -1.44195557e-02,
          1.92689389e-01, -2.47289211e-01, -2.60596037e-01,
          -1.39460757e-01, -1.36662588e-01, 2.60887891e-01,
          -2.92996645e-01, 1.33256033e-01, 1.41057134e-01,
          5.78477085e-01, -4.26205471e-02 ]
      - [ -1.02685101e-01, 1.60064578e-01, -1.78370789e-01,
          6.06796920e-01, 4.16032583e-01, 9.44199711e-02, 2.40068212e-01,
          4.31066781e-01, 9.81973112e-01, 1.62327990e-01,
          -1.11551136e-01, 5.33590876e-02, 1.91411227e-01,
          -3.33500892e-01, 4.46074456e-01, -9.46695730e-02,
          -2.95994788e-01, -8.02637160e-01, 2.25800171e-01,
          7.18201995e-01, -1.67108476e-01, -2.36582428e-01,
          2.24424034e-01, 3.95040244e-01, 3.77384007e-01,
          -1.76320001e-01, -1.32660344e-01, 1.04105204e-01,
          -5.63583732e-01, -2.49633238e-01, -1.50763895e-02,
          9.90351886e-02, -9.04728323e-02, 2.82477617e-01,
          1.05718113e-02, 1.45698309e-01, 4.39986587e-01,
          -1.96456522e-01, -4.11914170e-01, 4.90516156e-01,
          1.43623209e+00, -3.88227254e-01, -1.57388496e+00,
